2144 133
has -0.2815032 -0.07229745 0.12155357 0.1108733 -0.013182408 0.113284856 -0.023819858 0.2730833 0.043650333 -0.38807762 -0.09720588 -0.070489235 0.020339875 0.08100771 0.005380095 0.2468993 0.12935433 -0.32035583 0.016008263 0.019420352 -0.065837026 -0.034520324 -0.07378373 -0.04386858 -0.13349178 0.12454677 -0.031089956 -0.011064765 -0.012426159 0.068192676 -0.13226882 -0.055834033 -0.013722 0.13941795 0.23743674 -0.008850538 -0.016094588 0.019788263 -0.02725771 0.19855806 -0.06479799 -0.15109886 0.17673182 0.014360051 -0.28237742 0.057258457 0.23410541 -0.1802204 -0.15964945 -0.095485285 -0.24932145 -0.31145185 0.012533839 -0.16564707 -0.114306316 -0.45877403 0.023175845 0.020672016 0.23577183 -0.17555544 0.2683102 0.10008117 0.120155476 0.26390985 0.05536739 0.2460851 0.49490368 -0.03385337 0.018593054 0.19158642 -0.19481537 -0.020741023 0.058600266 0.3361918 -0.05950345 -0.23881692 0.15161316 -0.07455059 -0.04118251 -0.04385532 0.019723523 0.14650016 -0.049881224 0.2587473 0.069585375 -0.1929415 0.00022368907 -0.073583335 0.15945823 -0.11164387 -0.105296366 -0.006233853 0.29191846 0.25587836 0.1613211 0.06798259 -0.09700918 0.02298118 0.32853267 -0.35608688 0.15727285 -0.58485425 0.11398723 0.21234237 0.04361175 -0.120487854 -0.10779967 -0.10891048 -0.08376421 0.12065088 0.13948418 0.18326184 0.19745956 -0.21420132 0.044972602 0.3257515 -0.022082146 0.38947323 -0.3328231 -0.454218 -0.12304005 0.22662324 0.17270741 0.21975192 0.13738473 0.30980554 -0.2189939 0.36146745 -0.2375251 -0.08009504 0.010492032 -0.08764265 0.15882944
http://www.semanticweb.org/ElementKG#hasStateSolid 0.021283992 -0.06239887 0.46776512 0.10896247 -0.06481026 -0.33012703 -0.09010155 0.17076653 0.04739595 0.039470084 -0.11802598 0.12040069 -0.21627645 -0.249659 0.250256 0.14186588 0.18265337 0.2207909 -0.26976955 -0.34070703 0.09680802 -0.060285017 -0.17904468 -0.05149369 0.17115922 0.3213272 -0.035348564 0.18967463 -0.41733405 -0.18530317 -0.18908398 -0.23012613 0.3009113 -0.12127898 -0.124244004 -0.016416844 0.074994914 -0.07295062 -0.031938903 -0.047365077 -0.36368093 -0.29574656 -0.39297968 -0.027148092 -0.115590006 0.17604344 -0.17641456 0.048222482 -0.38995326 0.17449027 0.15882176 0.116999075 -0.4444741 0.1415049 -0.25656405 -0.22115912 0.18784569 0.12584953 -0.15276857 0.3430576 0.20067295 0.28502735 0.07654925 0.17828397 -0.1825355 0.16141866 -0.07080191 0.3046698 -0.15102395 0.09601581 0.17961869 -0.041272987 0.09096888 0.25634193 0.05058923 -0.09429734 0.1699618 0.16827543 0.4011955 -0.1147119 -0.0071292105 -0.100334994 0.15272653 -0.058108762 0.15892416 0.034318116 0.1893598 -0.13693692 -0.14988787 -0.008931659 -0.24609867 0.27487102 0.47381118 -0.09680603 0.095482975 -0.1128801 0.032397754 0.32839966 0.1125447 0.1882313 0.3044316 -0.077272445 -0.016186345 0.21543093 -0.12028301 -0.018611696 -0.20811279 -0.17304377 -0.02668972 0.5085232 0.34643915 0.24707657 0.3287807 -0.39009166 0.52461094 0.21191719 0.22711949 -0.15659158 -0.22319463 -0.37144884 -0.4154616 0.038455315 -0.24259605 -0.14177139 0.2908524 -0.036641687 -0.20705193 -0.08912595 0.19156885 -0.041439857 -0.24180803 0.24468406 -0.22974853
http://www.semanticweb.org/ElementKG#hasIonization2 0.27149987 -0.31777692 0.035258017 0.17377992 0.033856638 -0.17318517 -0.40448612 0.21832615 0.0659966 -0.016540183 -0.03619722 0.21237467 -0.54268503 -0.42359406 -0.08631797 0.113311835 0.098146446 0.07802452 -0.10033457 -0.23130064 0.04735912 -0.16348581 -0.39477265 -0.06727634 0.22358967 -0.054486576 0.21511047 0.2604739 -0.35654128 -0.083509535 -0.13248023 -0.26996106 0.48969147 0.061324168 -0.058640517 0.0024418265 0.12745668 0.07525865 -0.0028639587 0.104551 0.035442833 -0.29005256 -0.061636485 0.02741186 -0.35570672 -0.021950698 -0.28448656 0.2248192 -0.40694374 -0.19279338 0.24414718 0.10260704 -0.14306666 0.11227976 -0.38674095 -0.14605707 0.25218448 0.016144048 -0.14219289 0.1653773 0.1440015 -0.0021842194 0.1414093 -0.14843783 -0.17388852 0.22496898 -0.13245624 0.051845282 -0.031226996 0.19340022 -0.28083208 -0.33000597 0.17413537 -0.1938866 -0.4311567 -0.29978317 0.1070979 0.02278291 0.28608534 -0.1631109 0.16049765 0.18296295 -0.29476443 -0.32670966 0.21149088 -0.21469131 0.5256348 0.06125787 -0.40297884 0.16504033 -0.20091647 0.32019794 0.38564548 0.05843139 0.06958669 0.036042884 -0.21160929 0.29637912 0.22311752 0.11029846 0.33759198 -0.25399822 0.028730895 0.08926775 0.009402514 0.49859485 -0.040322594 -0.30560398 0.09276334 0.01466808 0.24857272 0.048469167 0.36026877 -0.5695975 0.5227313 0.1206202 0.18481861 -0.11051518 -0.32196033 -0.07997586 -0.25256822 0.093546435 -0.024970189 -0.1935166 0.23736322 -0.037974145 -0.045041412 0.096939854 -0.022451546 -0.050894275 -0.44452614 -0.06249281 -0.1891162
http://www.semanticweb.org/ElementKG#hasConductivity1 -0.062267225 -0.14767295 0.6561594 -0.2994399 -0.0785587 -0.10989993 -0.35804832 -0.0404431 -0.21050039 0.18854322 -0.20988156 0.21181421 0.09260534 -0.072794884 0.16412605 0.059787266 0.3376174 -0.37720788 -0.13978134 -0.06368863 0.15309276 0.16285938 -0.52692366 0.021815758 0.32934263 0.11055536 0.31033495 0.24124618 0.20284635 -0.12473356 -0.15236397 -0.6104521 -0.09413059 0.18922876 0.3513959 -0.40396252 -0.24633437 -0.13585696 0.1740888 0.07492883 -0.4785018 0.07954242 -0.17232788 -0.44893378 0.12843566 -0.19730248 -0.1384442 -0.40509266 -0.16822962 -0.2943092 -0.10553028 0.16469353 -0.22227572 0.026726115 -0.23611288 0.45300794 0.2373443 -0.60804707 0.024024013 -0.105808586 0.028841883 -0.17714286 0.08164615 0.15570715 -0.050261207 0.18503828 0.17275923 -0.14947854 -0.063202135 -0.0072123953 -0.021248035 -0.26109943 -0.39789814 -0.4766666 0.10679173 -0.21615349 -0.04389702 -0.16062921 0.18768293 -0.11014637 0.18178682 -0.09093889 -0.11857262 0.1662227 0.5016088 -0.17143886 0.2800139 -0.5447572 -0.15293624 0.30432522 -0.041916307 0.27016568 0.345464 0.35217887 -0.06334042 -0.23408666 -0.2620668 -0.01158075 0.0850362 -0.08329704 0.111169875 -0.4352666 0.3390737 0.3894973 0.09196292 -0.09697675 0.10876325 -0.14029889 -0.2744441 -0.32502383 0.50751024 0.4687574 0.06468987 -0.27582192 0.16636254 0.22587723 -0.2607471 -0.2515064 -0.5041519 0.326796 0.1216336 -0.4497019 -0.08338777 -0.06939702 0.19642013 -0.13931113 0.01137024 0.0038689007 -0.3446711 0.2304552 0.28253415 0.7779084 0.011835876
state -0.025518546 0.13043654 0.27219307 0.17213094 -0.15193868 -0.14037608 0.067212716 0.3430582 0.19615152 -0.23142132 0.079933755 0.092046455 0.08055817 -0.29282385 -0.048212685 0.21552266 0.37977934 -0.3008192 -0.3007083 -0.07041018 0.16796434 -0.17525691 -0.16117768 0.03560557 -0.16396785 0.27739695 -0.23924759 0.048494097 -0.16433805 -0.07686892 0.2111338 -0.0069787176 0.30884796 -0.38615015 -0.27949363 0.043327343 -0.16596209 -0.04759635 -0.10192643 -0.4567337 -0.45343453 -0.19082114 -0.113015 -0.15187061 -0.08418533 0.096083894 0.16946352 0.25424168 -0.04071529 0.28216285 -0.20295522 0.17366457 -0.04056253 0.31277573 -0.016352376 -0.32710505 -0.070651874 -0.079656094 0.46526936 -0.10628217 0.30345106 0.098939896 0.11575107 0.11958584 0.032952074 0.073565796 0.14198984 0.026147902 -0.12953243 0.21998481 -0.08447995 0.19120552 0.17109074 0.3548428 0.08510268 -0.08779408 0.016548857 0.03608744 0.25535235 -0.14863478 0.172372 0.07153213 0.0852005 0.07963933 0.016208552 0.18927802 0.24681297 0.05538706 -0.13054541 -0.15920517 0.25031975 0.48459604 0.18378142 0.2688478 0.38473305 0.09857544 0.018288253 0.30859026 0.18097636 -0.41869378 -0.060178526 -0.25514457 0.09545102 -0.15511233 -0.06782101 -0.099702984 -0.35341603 -0.35594344 -0.2863779 0.23734808 0.13207325 0.39766735 0.24814104 -0.29891467 0.17614418 0.13576713 0.1441446 0.124033324 -0.29636708 -0.34055588 -0.37376896 -0.17110953 0.19377956 -0.22347197 0.52810174 -0.1625875 -0.12732491 0.3813015 0.05739355 -0.09369493 0.27416533 0.20518677 0.05501957
solid -0.23358911 -0.017590031 0.7374808 0.14427981 0.12426684 -0.22157517 -0.14677972 0.31617486 0.37173632 -0.18715869 -0.064517096 -0.2621659 -0.22209615 -0.042607177 -0.12009691 0.033799253 0.22221102 -0.028580876 -0.4004149 -0.17025699 0.044843297 -0.21708044 -0.13801473 -0.16993925 0.21496017 0.21183307 -0.14961386 0.08429227 -0.5408345 0.096363455 -0.0957413 -0.026084693 0.24491568 -0.28387877 0.027251022 -0.24448274 0.013340416 -0.1254107 -0.37171307 0.12853205 -0.25317988 -0.32643354 -0.21839724 0.018379673 -0.33735415 0.30076295 -0.07940725 0.018652469 -0.53427607 0.44832814 0.13050288 -0.28918794 -0.046147153 0.020382786 -0.4032621 -0.1724094 0.3117 0.06352802 0.28753078 0.31241393 0.46849164 0.23861484 0.08168997 0.046624362 0.11972684 0.39127627 -0.09820322 0.27759525 -0.17278332 0.019095946 0.02561187 0.15609884 0.025688564 0.4305235 0.20290658 -0.32322124 0.08593043 -0.0682723 0.3994567 -0.07289976 0.15035178 -0.023890804 0.3177852 -0.12643707 -0.021298723 0.22525924 0.2976 -0.1160576 0.091881104 -0.27905607 -0.43675026 0.07792738 0.16001101 0.010327639 -0.03270293 -0.006660094 -0.023317814 0.00022868474 -0.20452568 -0.15908392 0.26605102 -0.06594438 0.24335538 0.6719028 -0.26365748 -0.06258604 -0.19595267 0.061111562 0.12388212 0.461132 0.024674635 -0.02684733 -0.10648397 -0.34485343 0.108574055 0.3340376 0.28059113 -0.035868276 -0.3658766 -0.24506831 -0.107576266 0.52888256 0.01281061 -0.2472769 0.48541787 0.14441058 -0.35978472 -0.11007857 0.21238045 -0.08365856 -0.12222357 -0.05391038 0.15751527
ionization2 0.10132276 -0.29636133 0.106215455 0.1692177 -0.01892375 0.04688779 -0.2887606 0.2881345 0.28030366 -0.16565834 -0.045679178 0.0067336457 -0.33759764 -0.26838616 -0.28466624 0.25588423 0.06766742 -0.02999756 -0.19166164 -0.18707031 -0.043636423 -0.24321899 -0.24780609 -0.07055224 -0.00921611 -0.1250968 0.2147824 0.15488271 -0.335757 0.106181726 0.06652589 0.07713664 0.4702555 -0.14392103 -0.20642598 -0.10566639 0.007079705 0.00055512943 -0.1218437 0.09251904 0.036763042 -0.23760617 0.021522539 -0.06484804 -0.46248952 0.25898775 -0.09996239 0.2748327 -0.5726135 -0.10261238 0.12818092 0.028060172 0.07872631 0.11027246 -0.2051211 -0.22115216 0.27311873 -0.06848877 0.18616201 0.050578542 0.24743897 0.09771605 0.29650593 -0.013543663 0.042597942 0.31670874 -0.07252586 -0.16371833 0.029826205 0.16613677 -0.35299826 -0.3498883 0.38813344 -0.020693049 -0.35887983 -0.4361611 0.09862214 -0.041444913 0.22816497 -0.18943076 0.24366146 0.36600712 -0.11394177 -0.44239104 0.110378265 -0.07675672 0.7325524 0.14592244 -0.23907086 -0.03438321 -0.025470305 0.41591886 0.17298962 0.2761439 0.151883 0.12199583 -0.015271876 0.14707948 0.19525406 0.072271235 0.20202777 -0.32752383 0.1630645 0.1497344 0.107208245 0.59512573 -0.0024935682 -0.25883248 0.048837688 -0.07069703 -0.053321537 0.12932314 0.16999124 -0.6252929 0.33401182 0.3336128 0.15442657 -0.095248185 -0.34525335 -0.106780134 -0.16829905 0.17353995 0.1565925 -0.21106459 0.45598695 0.08761302 -0.17185485 0.36468726 -0.07743206 -0.069078386 -0.29306802 -0.1262816 0.07575133
http://www.semanticweb.org/ElementKG#hasElectronAffinity2 -0.5219208 -0.16598071 -0.00046907284 0.23259835 0.22760035 0.15286204 -0.41737399 0.21660602 0.04953492 -0.04018226 -0.1353829 -0.35199857 -0.3489227 -0.030478703 -0.25762382 0.37216267 0.1381693 0.19956373 -0.40778106 0.046991456 -0.28900015 -0.334929 -0.07741542 -0.12860744 0.28749427 -0.036445316 0.1997502 0.17292884 -0.17085797 -0.05020441 0.0061850837 -0.33325994 -0.07108734 -0.0065213875 -0.05437022 -0.087990426 -0.001554617 0.45408878 0.0212743 -0.18015823 -0.45355985 0.32856527 -0.28417262 0.028299537 0.10996557 -0.31671715 -0.03345198 -0.5337997 -0.47028032 -0.026508719 0.4564344 -0.008132461 -0.6217846 -0.18087018 -0.2121447 0.022927513 -0.42293495 -0.11721666 0.07134894 0.25966984 -0.3295765 0.4193721 -0.16298915 0.009612402 -0.20360912 0.5038806 0.26630858 0.3907522 -0.81452554 0.25085244 -0.0787747 0.08600138 0.4084736 -0.08218953 -0.6282856 -0.35414594 0.04047453 0.027869457 -0.22490247 -0.17501886 -0.06461806 0.27077305 -0.06596945 0.49045298 -0.14797676 0.05242854 -0.0015392053 0.34876654 -0.19715542 0.23860906 -0.51324934 -0.022448061 0.4115481 0.118617766 -0.2643204 -0.2038946 -0.1706549 0.32716763 0.16189283 0.18456383 0.21943124 0.15981723 0.04125132 -0.025590017 -0.20562764 -0.23076071 -0.33464855 -0.24458311 -0.07739857 0.3152634 0.7528223 -0.27235413 0.11876873 0.13035749 0.40927276 0.31950098 0.3159558 0.06654638 -0.5031592 0.058290325 -0.19299428 -0.39973745 -0.31387913 -0.18253888 -0.27154636 -0.33052096 0.002450119 0.10395687 0.13695142 -0.037636496 0.46627668 0.15759207 -0.087367706
conductivity1 -0.27291387 -0.09693126 0.6867298 -0.17918396 -0.04833623 0.14797804 -0.2032387 0.14757958 0.06020216 0.05439624 -0.18705341 0.06777237 0.22196612 0.09057618 -0.062202357 0.2039163 0.40539926 -0.45327118 -0.2549094 -0.036423676 0.09884706 0.09700033 -0.32806453 0.052344397 0.17779447 0.09624355 0.33132958 0.12259565 0.24303906 0.15401706 0.04001312 -0.29925078 -0.11331121 0.022852844 0.24118656 -0.5319799 -0.29879308 -0.18592815 0.061066147 0.034786664 -0.4209971 0.12773748 -0.0759884 -0.49151602 0.020811547 0.012854969 0.054407135 -0.3496804 -0.3286333 -0.17738624 -0.23124471 0.08306842 0.068363704 -0.0330544 -0.10862873 0.34790015 0.3022224 -0.6817711 0.4223387 -0.13844217 0.1315187 -0.0858462 0.24052651 0.29973474 0.090304 0.3136858 0.17032644 -0.27771848 0.06267769 -0.049549956 -0.039712694 -0.23958102 -0.19363251 -0.2943185 0.17431128 -0.3122557 -0.04456643 -0.23018475 0.17663787 -0.14273332 0.27522767 0.13815221 0.0435675 0.064465515 0.36760873 -0.043721072 0.43298876 -0.45296493 0.012335263 0.06079636 0.15099187 0.3403806 0.1376071 0.5264287 0.10746449 -0.22706842 -0.09462846 -0.17889525 0.09763997 -0.15944646 -0.024384642 -0.54232657 0.45963928 0.4642618 0.18646866 -0.008465545 0.16263077 -0.06108362 -0.29670766 -0.37251374 0.25119963 0.4473719 -0.13377419 -0.31365266 -0.02677057 0.36810386 -0.2537147 -0.25566185 -0.56834555 0.2888796 0.24155399 -0.42201552 0.10488938 -0.13862929 0.35964212 -0.022812223 -0.15339111 0.18690643 -0.375788 0.15678714 0.4398204 0.71460634 0.32461718
http://www.semanticweb.org/ElementKG#hasDensity2 0.15985231 -0.27943817 0.13288468 0.13810322 -0.016089765 -0.27777806 0.015623382 0.22052224 0.105355345 0.439578 -0.1406476 -0.04939188 0.27599347 -0.24845368 -0.20417349 0.21878903 0.25762907 -0.17841394 -0.4513684 -0.00021574883 0.25634402 -0.042932358 0.100564234 0.040954415 0.13826123 -0.086367354 -0.03872598 0.27202487 -0.17730552 -0.20862514 0.24860868 0.05595383 0.020600742 -0.20552102 -0.08705014 -0.00615482 0.26662508 -0.10453836 0.13457489 0.14166896 -0.07392388 -0.20079958 -0.13925123 0.2240212 0.10671013 -0.15499124 0.11893771 -0.20949998 -0.31654587 -0.08740194 0.29327998 -0.36311486 -0.07552179 0.23006113 -0.46279284 -0.02392821 0.81940067 0.07757897 0.39092216 -0.040222947 -0.15643764 -0.10475541 0.14190881 0.1651662 0.21280874 0.25508738 0.092714205 0.43319395 -0.1471851 0.26117262 0.04782255 0.2996609 -0.015073042 0.021143641 -0.18041135 0.002066311 -0.08416929 0.41059393 0.2037956 0.038471185 -0.36234868 0.27035502 0.08718123 0.31987053 0.4090008 -0.2865439 0.24105227 -0.14285094 -0.015802855 0.3203123 -0.649091 0.06064868 0.6589475 -0.26274782 -0.31447223 -0.2577459 -0.12232151 0.44027486 0.51530856 0.3603046 0.40573746 0.3548192 -0.18916918 0.44930735 0.05847395 -0.06448944 0.12953886 -0.14274956 0.25217593 -0.07158143 0.7729088 0.31115034 0.22566248 0.090642154 0.424144 -0.045848347 -0.071424775 0.3094734 -0.30654386 -0.14614572 -0.7541937 -0.09662942 -0.2659935 0.0019117681 -0.027491411 0.016574483 0.043485843 -0.07587695 -0.28246608 -0.56916 0.17405821 0.58890486 -0.19317377
electron -0.26452637 -0.41743088 0.10751181 -0.10257567 0.07115706 0.11395181 -0.22353622 -0.05485298 0.37087613 -0.37063366 0.23029953 -0.28159165 0.0032290109 0.34840354 -0.5110127 0.37924746 0.094000906 0.06789471 -0.19013314 0.07298678 -0.42906034 0.03447348 0.3400349 -0.08185221 0.04692821 0.32745668 0.23841618 -0.13813211 -0.19031014 -0.063911006 0.185306 0.0998061 0.19597116 -0.19878079 -0.06352004 -0.2257107 0.03266728 -0.005763594 0.21263714 -0.28137758 -0.7659648 0.28663096 -0.25355092 -0.19496839 -0.015549518 0.09934755 -0.30041873 -0.1475378 -0.35205168 -0.24749881 0.14935051 -0.28213227 -0.0678036 -0.28124392 -0.036206402 -0.18557681 -0.12683147 -0.21140291 0.74319696 0.17195906 -0.12079441 0.094279096 -0.26142815 0.0971459 -0.11819006 0.311261 0.10847516 0.1915833 -0.5067393 0.14590603 -0.2417943 0.07591813 0.0745659 0.15339924 -0.55879015 -0.39438576 0.06179523 0.18648614 0.23257789 -0.056515012 -0.25515065 0.4168208 0.021600148 0.32019266 0.16786292 0.084496036 -0.16086574 0.45151636 0.010164232 -0.0018486719 0.0031108505 0.115976736 0.13018659 0.022677282 -0.060368218 0.0230876 0.26117232 0.015486657 0.05716771 -0.076597326 0.39279982 0.06540308 0.4466416 0.034941033 -0.13652241 0.08907803 -0.1230837 0.09494277 -0.30136988 0.04022032 -0.040013064 0.15728714 0.07882891 -0.5555267 0.022449756 0.45693454 0.26034692 0.27855268 -0.37503302 -0.42674896 -0.07613314 0.008065364 0.15203041 0.05321485 0.045439664 -0.08218336 -0.12790842 0.3437294 -0.38135192 -0.04347902 0.3139369 0.37016356 0.0638321
boiling -0.38582143 -0.029791323 -0.016839776 0.29817742 -0.17534511 -0.1396544 -0.25971964 -0.024569195 0.3575617 -0.32560915 0.20090932 0.010475003 0.2870536 -0.1561576 -0.16246495 0.024187354 0.09544401 -0.21396558 -0.16366626 0.10941791 0.0005470026 -0.25870797 0.1304732 0.25794595 -0.06189773 0.11609294 -0.12752512 0.21508354 -0.48333415 -0.18111667 0.063227065 0.4277466 -0.19040461 -0.042416424 0.17436859 -0.004947473 -0.17610833 -0.330123 0.19209453 -0.19700488 -0.062341835 0.049602073 0.18340176 -0.0712703 -0.23559445 0.18404609 0.27626535 0.17232677 -0.65980476 0.040478453 -0.011190406 -0.041494742 0.09174667 -0.19560188 -0.008310912 -0.16665888 -0.028738264 -0.31166792 0.23861888 -0.046100106 0.036057588 -0.052699406 -0.019856662 0.16967086 0.14767879 0.033809304 0.4364895 -0.0017714282 -0.3458896 0.08770796 0.13312916 -0.14327964 0.25890857 0.01512374 0.15605041 -0.078906216 0.055993494 -0.1868131 0.33514267 0.017297305 0.26384133 0.2529849 -0.4330951 0.051557317 0.08425623 0.27299815 0.14224303 -0.23925245 0.14134413 0.20181276 -0.30166274 -0.014122868 -0.04200992 0.16461962 0.2990778 0.11477337 -0.17201735 -0.046432704 0.5820454 -0.21232226 -0.058963653 -0.015945679 -0.10342356 0.09604914 0.061148863 0.2796333 -0.002622086 0.09904134 -0.06163481 0.035983622 0.24168648 -0.0015199793 -0.040926225 -0.4658485 -0.08106381 0.3005305 0.039692406 0.33912903 -0.57214516 -0.40630215 0.17756478 -0.3607592 -0.21388862 0.08550973 0.2711124 0.21235774 0.019380815 0.0863933 -0.050471913 0.09959182 -0.092233434 0.2581535 0.6870412
melting -0.3746253 -0.0012824727 0.051041517 0.18680857 -0.30654225 -0.3136941 -0.15626165 0.027887024 0.2875382 -0.080384314 0.17173956 -0.11281241 -0.028937774 -0.122734964 -0.066586286 0.026393386 -0.087804385 -0.42336708 -0.1371906 0.079384804 0.14036 0.043176945 0.3053211 0.14658757 0.021397483 0.029237652 -0.17289312 0.13474903 -0.31664672 0.0203666 0.30437756 0.40613467 -0.15024367 -0.15350476 0.13376027 0.16715167 -0.08694043 -0.0774545 0.27011806 -0.14826983 -0.08978403 0.052128624 0.04231974 -0.2650405 -0.22129172 0.26858634 0.16346648 0.17413154 -0.7077781 0.15378046 -0.032319747 -0.07420813 0.1721034 -0.34285906 0.034486942 -0.22286639 0.17681432 -0.23217516 0.13409553 -0.025113389 -0.015866676 0.13483793 -0.052352693 0.14520939 0.0040785526 0.032604724 0.2127523 -0.09520454 -0.41232607 0.2455461 0.20976381 -0.022427576 0.23594157 0.17430283 0.0437908 -0.09988156 -0.034506988 -0.14027634 0.51183116 0.0226369 0.2622037 0.10683119 0.021640493 0.087345935 -0.085899234 0.39983374 -0.009260765 -0.3268879 0.4076152 0.017846325 -0.3404733 0.05790437 -0.0054027317 0.13228172 0.11792522 0.2752023 -0.116438836 0.1626526 0.4063389 -0.13842532 0.0019723373 -0.41720915 -0.11392756 -0.031539496 0.1695389 0.20624685 -0.27233246 -0.20175174 -0.007923944 0.09617497 -0.040534593 0.049815115 0.13421832 -0.5284287 0.04124314 0.28335387 -0.07978507 0.29191968 -0.52760583 -0.123847425 0.16949663 -0.33142027 -0.1896322 0.17764795 0.32817134 0.38742614 -0.011367049 0.13402325 -0.091725774 0.22823043 -0.1659649 0.25994027 0.5586391
affinity2 -0.85443234 -0.21688035 0.35686493 0.2613224 0.17925489 0.4827516 -0.32076034 0.37466696 0.04661128 -0.16056907 -0.07682321 -0.267262 -0.11868937 0.1475629 -0.4634568 0.45077068 0.32018238 -0.012913985 -0.34661764 0.32474738 -0.3616482 -0.4072461 0.2784315 0.04155241 -0.08773933 -0.041208986 0.17688341 0.003772102 0.0016852639 0.2893263 0.42389533 0.023150641 -0.25018725 -0.26629236 -0.061367474 -0.32224274 -0.20695624 0.15951976 -0.23683263 0.18942912 -0.27217454 0.29064697 0.013151098 0.030144952 -0.15058438 -0.02100999 0.5445258 -0.40657705 -0.5551881 0.051976684 0.19123746 0.021855712 -0.5697591 -0.3680243 0.026655406 -0.07787481 -0.44121844 -0.19474499 0.47830266 0.24090797 -0.082650006 0.65539 0.24592485 0.34526515 -0.15407689 0.44615906 0.32835978 0.4015476 -0.8653516 0.08480748 -0.14729267 -0.11954459 0.5618123 -0.09727198 -0.5872293 -0.39413017 0.14836866 0.04806909 -0.32242614 -0.20978288 -0.2432864 0.17517875 0.23292983 0.34255174 -0.3189983 0.15342762 0.17980094 0.35126963 0.05418575 0.07437325 -0.40826845 0.19880436 0.47537285 0.18633181 -0.121199064 -0.044404954 0.058765884 0.6134028 0.2750745 0.33135167 -0.097644724 -0.08517778 0.09274023 0.028520409 -0.21373366 -0.11417314 -0.36798415 0.03131467 -0.16977565 -0.17670806 0.3721289 -0.23664065 -0.038015723 -0.027875008 0.25600132 0.56379175 0.2814524 0.00044543936 -0.4171882 -0.03301708 -0.27080682 -0.36903396 0.0052947546 -0.30695176 0.028612504 -0.40283042 -0.24222969 0.1127685 0.1394502 -0.09429034 0.29138473 -0.19746041 0.05331735
http://www.semanticweb.org/ElementKG#hasModulus1 0.06872835 -0.2693622 0.37498218 -0.1270448 -0.15882044 0.34561405 -0.042602975 0.26158822 -0.32063732 0.16627918 0.39222923 -0.0047024926 -0.33757493 0.035171803 0.24075827 0.33189166 0.40660152 -0.1870318 -0.2895348 0.10383259 0.03727259 0.43034676 -0.069061935 0.056854878 0.26331824 -0.17104942 -0.07157324 -0.26100785 0.43816358 -0.39470407 0.14081357 -0.4086417 -0.1454127 0.22893682 -0.057598315 -0.18935396 0.14063513 -0.019466575 -0.13039058 0.15386654 -0.050889894 -0.2939817 -0.0013716412 -0.24806176 -0.5739094 -0.52343607 0.013137089 0.142982 -0.66731966 -0.24293281 0.054056324 0.42567345 -0.32208297 0.23813273 0.07631741 -0.1733754 0.2126281 -0.18075202 0.3138047 -0.19249903 -0.35482305 -0.08445837 -0.2885764 0.13124196 0.5695438 -0.2901958 0.30010736 0.5640196 -0.52139634 -0.19620407 0.26046336 0.57848257 -0.44992536 -0.3741533 -0.024346758 0.20470081 0.04468984 0.079074785 -0.23577438 -0.39882958 0.14575829 0.19081445 0.026201297 0.2781105 0.6158573 0.12111527 0.39023453 -0.5113567 0.19603936 -0.12651919 -0.63768595 -0.70116657 0.49588782 -0.116234474 -0.32785597 -0.15201159 -0.2519973 -0.09878535 0.4074404 0.23132561 0.40102893 0.27460116 0.17209198 -0.043494586 -0.16861765 0.076126836 0.05780814 -0.19802453 0.030316886 0.43555632 0.2830962 0.057639092 0.7201878 -0.57587796 0.40044934 -0.122895725 0.1983487 0.11170647 -0.13971402 -0.24888214 -0.392842 0.034910224 -0.053685617 0.16174835 -0.20015034 -0.1728147 0.15522064 0.19009858 -0.118726246 -0.22894539 0.1825959 0.28623983 0.107316665
http://www.semanticweb.org/ElementKG#hasRadius2 -0.038634066 -0.42700586 0.37880415 -0.089835145 -0.16938417 0.0392843 -0.5909322 -0.10658914 -0.17734091 0.022805864 -0.6087636 0.023603305 -0.27457792 0.41382274 -0.018944426 0.027386224 0.013487362 -0.19200832 0.033362143 0.16090356 -0.016769022 0.08419077 -0.15195984 -0.04902692 0.16465305 0.14927123 0.05957519 0.69858104 -0.1123765 -0.3924959 0.17258513 -0.06103538 0.1616273 0.37788558 -0.60377264 0.2521395 0.13687003 -0.20579252 -0.011229793 0.28247684 -0.27518573 -0.16745074 -0.18751986 0.29039502 -0.67972016 -0.117908634 0.49167272 0.10396227 -0.0069951178 0.040386762 0.061115444 -0.1507578 -0.34514293 -0.13101557 -0.34139958 -0.31401765 -0.04750743 -0.36235854 0.4996393 0.62999666 -0.49282587 0.17324837 0.04415626 -0.28726688 0.12997335 0.12491916 -0.1302926 -0.49386165 0.055975754 -0.0471356 -0.58740133 -0.1317226 -0.13490012 -0.13837968 -0.067168705 0.46900553 -0.37741345 -0.123240374 0.5475871 0.21183203 0.22756635 -0.16455387 0.13143884 0.6018616 -0.14507617 0.30112657 -0.08334574 0.052044284 -0.4789688 0.3454796 -0.32078412 0.32992786 0.22492543 -0.23635273 -0.034260225 0.35516194 -0.35320592 -0.20960642 0.5275396 -0.18331508 -0.07417286 0.17277075 -0.079410605 -0.1539479 0.2865007 0.18486175 0.24616632 -0.8268373 -0.06065566 -0.07058349 0.49400398 0.44361484 0.16244921 -0.008142152 0.59176993 0.07550432 0.056083802 0.3627273 -0.1765901 -0.169801 0.10076598 0.5225851 -0.2016394 -0.121972375 -0.28715605 0.08742353 0.020137472 0.17306885 -0.07409565 0.08786132 -0.19417463 0.38839146 -0.14878643
density2 0.033831216 -0.28688562 0.13735114 0.12782522 -0.03354239 -0.024807615 0.0893598 0.3599243 0.39918807 0.35244712 -0.0917844 -0.2228339 0.47218928 -0.11577967 -0.41017568 0.29538238 0.33658746 -0.33142588 -0.52891415 -0.002460653 0.18062595 -0.104510084 0.29340577 0.061564256 -0.040028702 -0.1369675 -0.015547402 0.1804884 -0.08405864 0.01739284 0.5252107 0.3778242 0.0026592773 -0.37218264 -0.22773479 -0.17023818 0.1446065 -0.15234724 0.027888857 0.14652038 0.017158031 -0.18094116 -0.03301086 0.17009176 0.030757548 0.08710825 0.25528988 -0.1994812 -0.4842433 0.0066050394 0.10318783 -0.3733736 0.18744025 0.17425986 -0.28369156 -0.124399364 0.8584624 -0.0061797304 0.75155646 -0.13718957 -0.034423478 -0.0049397578 0.35359028 0.31003356 0.3805012 0.35069144 0.13110888 0.3439033 -0.07234324 0.20076574 -0.016765608 0.3020464 0.11780958 0.23088378 -0.103676006 -0.121252984 -0.101901956 0.3587095 0.14816444 -0.0013163084 -0.32423374 0.5039718 0.1943999 0.19878426 0.30850413 -0.13897657 0.39554814 0.066298194 0.17898816 0.17859404 -0.52404755 0.09317483 0.40795818 -0.05709468 -0.17254192 -0.20837137 0.010502281 0.293783 0.5114134 0.28583282 0.28706315 0.21957116 -0.08071303 0.51226103 0.0979475 0.027171465 0.167995 -0.13630737 0.17584519 -0.11198598 0.44364128 0.38159013 0.043708768 0.062716074 0.20689397 0.12392101 -0.10451183 0.27401683 -0.3457539 -0.16858426 -0.63322455 -0.029073166 -0.12403989 -0.022045324 0.14273615 0.06900634 -0.054746136 0.110162795 -0.34844348 -0.62434566 0.324961 0.49051544 0.1268919
http://www.semanticweb.org/ElementKG#hasBoilingPoint7 0.001370941 -0.24101561 0.1904539 0.23619375 -0.0049822265 0.14375868 -0.5522907 -0.38560292 0.30621174 -0.28359696 -0.007550183 0.30734968 0.33947635 -0.59629273 -0.15985157 -0.11999353 -0.6562706 0.25690666 -0.05905529 0.09064716 -0.39998722 -0.6291239 -0.57301867 0.3535108 0.2222709 -0.3216998 0.24417542 0.17808546 -0.42107627 -0.35734618 0.06075668 -0.039845087 0.13358457 0.05006075 0.026802199 -0.2504739 -0.33766717 -0.22569588 -0.7737315 0.08196336 -0.60579455 -0.18653037 0.25124863 0.37283742 -0.10049189 -0.11703458 -0.09261708 0.13605817 -0.016648605 -0.5286311 0.19114715 -0.09345051 -0.026341747 -0.1817614 -0.33218864 -0.08299754 -0.1228225 -0.14423701 0.4838068 0.061827894 0.111626156 -0.042091943 0.088145256 -0.31068605 -0.5413109 0.47968328 0.53630084 0.15165636 -0.4110308 -0.18686083 -0.085410535 -0.47698113 -0.4067092 -0.18069132 0.58241886 0.474548 0.3406235 0.12924786 -0.12505779 -0.17951556 0.3258209 -0.049472224 -0.5311531 0.12546155 0.45302844 -0.36607134 0.38349563 -0.43019146 0.07993156 0.21722418 -0.34991053 0.027685776 0.43533877 0.077193156 0.33608478 -0.02755797 -0.19793393 0.38619307 0.23045684 0.4314226 0.08536342 0.4145472 -0.25431332 0.35573187 0.183699 0.12957318 0.25350037 -0.2793312 -0.026080836 0.3976247 0.70359826 -0.20547679 0.064293414 -0.19049601 0.26981956 0.036886055 0.47321275 0.285361 0.03693212 -0.46727568 -0.30436197 -0.2386736 -0.444344 0.18746993 -0.14288983 0.052599568 -0.18518363 0.14806876 0.15864693 -0.13166481 0.41899148 0.286219 0.07241601
http://www.semanticweb.org/ElementKG#hasHardness3 -0.3649596 -0.11275868 0.26496908 -0.34395644 -0.32478324 0.17218427 -0.40861753 -0.09337962 0.25423232 0.06802052 -0.08484363 0.310843 -0.32608706 -0.007656868 -0.17241056 -0.40861937 -0.3313652 -0.39697784 -0.21182196 -0.09551557 -0.11178166 -0.10393247 -0.21216589 0.37378472 0.27503812 -0.14381024 -0.2141686 0.043331977 -0.07156122 -0.32167295 0.27317873 -0.247723 0.2367952 0.09342216 0.28607616 0.23152183 -0.28822297 -0.38734692 -0.1335111 0.22866221 -0.13860142 -0.22104219 0.21693245 -0.2420487 0.0500839 -0.5484534 -0.03865317 0.022204844 -0.71788937 -0.15751335 0.36146072 0.10777901 -0.03929976 0.5015165 -0.10634175 -0.010113215 0.1531959 0.30641407 -0.26274088 0.06649309 -0.17746724 0.17707045 -0.20267718 0.31975463 -0.07600992 -0.01757115 -0.23805515 0.02187334 -0.20807828 0.14072019 -0.28150746 -0.2425811 -0.4508886 0.5955037 -0.4144231 -0.29195768 -0.49585328 0.1362199 0.394627 -0.49354315 -0.30414543 -0.11384909 0.095544145 0.30443612 0.48868722 -0.24180388 0.63139963 -0.07320848 -0.2826924 0.1473979 -0.37184757 -0.0645937 0.5997661 0.27907693 0.2445904 -0.13459116 0.027129637 -0.098265566 0.4078238 0.2695694 0.55308557 0.047488343 -0.202293 -0.13243584 0.012288684 0.41723782 0.18850896 -0.099347636 -0.18221796 0.06772154 0.52990496 -0.21466349 -0.08166625 0.23388024 0.4714526 -0.16380802 -0.04385437 0.23422122 -0.5855408 -0.37230164 -0.6539928 -0.020943286 0.30755463 0.6278891 -0.21078192 -0.015139123 0.10620302 -0.15201978 0.49486157 -0.308088 0.4360778 0.1046637 -0.11248889
point7 -0.57069194 -0.12904163 -0.051872745 0.5325222 -0.008080936 0.40936252 -0.4508828 0.39578155 0.45451543 -0.14904463 -0.48109025 0.07781375 0.3247969 -0.25107223 -0.13365671 0.04016674 -0.26180273 0.075671405 -0.13234246 -0.03995598 -0.5014686 -0.3614977 -0.3621478 0.32123026 0.118876584 -0.8386788 0.26880357 0.1807818 -0.081264935 -0.2414719 0.47787845 0.13740954 0.012391817 -0.18510519 -0.18846245 -0.32435834 -0.14070065 -0.48740858 -0.6245122 -0.23681591 -0.5666547 0.118480384 0.017762339 0.5498467 -0.1243242 -0.028095845 -0.012321457 0.36302313 -0.2955131 -0.40400538 -0.11491568 -0.30379373 0.47796568 -0.20531881 0.14757979 -0.11559118 -0.24405408 0.045596607 0.6674078 -0.12915495 0.25100273 0.1866717 0.13374199 -0.018114477 -0.63323975 0.47225988 0.32471636 0.19457039 -0.24243641 0.13160649 -0.18749069 -0.714373 0.09398062 0.0498902 0.77833194 -0.14635894 0.20270425 0.1868978 0.044996284 0.2589766 0.23417969 -0.05837984 0.19550186 -0.027323559 0.26586458 -0.115341686 0.59043396 -0.3028845 0.33238798 -0.15796512 -0.29132882 0.2688612 0.54224586 -0.015773734 0.6451352 0.07099694 -0.033966977 -0.039152488 0.16200781 0.12663352 0.14939797 -0.0071316115 0.099343956 0.33665612 0.32196537 0.08871192 0.401016 -0.12601091 -0.27570778 0.3060232 0.22874406 -0.3565164 0.21093899 -0.16901183 0.003841825 -0.0030113435 0.47826084 0.09339587 -0.27602074 -0.3337614 0.16535133 0.12976328 -0.3648392 0.32137972 -0.014091918 0.0374215 -0.18393604 0.5532875 -0.13226885 -0.16103923 0.355777 0.2192649 0.025807386
http://www.w3.org/1999/02/22-rdf-syntax-ns#type -0.20802386 -0.07002402 -0.25538704 0.27804115 -0.10379424 -0.07779011 0.07522099 0.13960776 -0.14981915 0.24724859 0.11351225 0.39702633 -0.3932401 -0.21580647 -0.06466434 -0.31198454 0.052641954 -0.23908162 -0.2480959 0.09912811 0.08493301 -0.06818289 -0.2741978 -0.17377782 0.3074086 -0.41295862 0.06353908 -0.0756185 0.08342506 0.15299097 0.047786284 -0.12872061 0.31097728 0.36177385 0.09061339 -0.20372017 -0.013202252 -0.16072097 0.00661341 -0.39762756 0.022931868 0.04955477 -0.11523578 0.20606467 -0.0119341845 0.20744857 -0.21206404 0.099519156 -0.075436704 0.04163352 0.121574186 -0.0028994433 0.03906036 -0.1403405 -0.469023 -0.09683066 -0.14405078 -0.014814886 -0.035987888 0.14611022 -0.6860798 0.16519564 -0.32192007 0.17642234 -0.036824357 -0.2503399 0.02101198 0.1497055 -0.25820303 0.09249985 0.12936416 -0.04558421 -0.09131375 -0.18262008 0.028846541 0.041978307 -0.061457235 -0.052698236 0.0049772896 -0.101575635 0.16527404 -0.54531723 -0.13759178 -0.023110202 -0.018247778 -0.30923522 -0.38312852 -0.14148667 0.05205219 0.56629646 -0.05999038 0.046952933 -0.14058468 0.4199339 0.027656361 -0.14600252 0.058006223 0.18629482 0.14117484 -0.36044458 0.21962331 -0.21143772 0.057756465 0.16446933 -0.43593293 -0.19800168 -0.2377252 -0.16608544 0.05663109 0.07774242 0.48240033 0.29809487 -0.544741 -0.590749 -0.04389556 -0.002739209 -0.21192777 0.6312935 0.0071592047 -0.40566275 -0.38054106 0.19417872 -0.13257766 0.20201142 0.049001005 0.22199124 -0.03808621 0.03521026 -0.15456285 0.040501848 -0.41170457 0.2579024 -0.02557248
point -0.4337762 0.23855412 -0.34728834 0.4836793 -0.18999353 0.12857038 0.33756614 0.42286313 0.13091402 0.044643726 -0.27702138 -0.054030072 0.33456355 0.032353137 -0.18299754 -0.28602976 0.09127754 -0.2333236 -0.45412803 0.14777292 0.37180138 -0.106842645 0.10346381 -0.21435882 -0.13045633 -0.51564515 -0.25075108 0.06912817 0.051974483 0.03170573 0.17625336 0.43733168 0.33384162 0.2542648 -0.25308985 0.034634735 0.2342465 -0.23168999 0.033604767 -0.3410485 -0.35485154 0.17221463 -0.011445211 -0.24729042 0.07552753 0.09801129 -0.4549673 0.14359947 -0.4952541 0.2063324 -0.12718189 0.1663411 0.26449543 -0.18485753 0.15272108 0.12665115 -0.11368846 0.0062456937 0.06523446 0.16166927 0.055390384 0.10685487 0.15916064 0.40582445 0.3093757 0.1423775 0.16380668 -0.03614716 -0.24977024 0.12532935 -0.11668186 -0.5275789 -0.07313547 -0.35071963 -0.059136685 -0.11663207 0.048889775 -0.08088358 -0.10708675 0.36220944 0.30805156 -0.26923463 0.04289509 -0.15590842 -0.005671956 -0.15965348 -0.06628372 -0.019171847 0.08688318 -0.3404469 -0.13337386 0.32389823 -0.024914613 0.10547909 0.3529875 0.039399356 0.015466222 -0.075628035 0.5024875 -0.18838811 0.2150242 -0.19435155 0.43629956 0.10961408 -0.279793 -0.22387159 0.19519414 0.042307135 -0.6306835 0.3922265 -0.082388304 -0.029045377 -0.037290357 -0.15543154 -0.06633216 0.12502976 -0.12506787 -0.016290989 -0.3718452 0.003021047 0.07983088 0.43213642 0.0890242 0.43609047 -0.07891192 -0.18833978 -0.12247724 0.26133037 -0.47776183 -0.26250446 -0.16029441 -0.08216782 -0.12564678
http://www.semanticweb.org/ElementKG#hasRadius3 0.52288014 -0.41930538 -0.31554896 -0.018760152 -0.30772638 0.4089493 0.11093114 0.50810474 0.05498742 0.07933883 0.079470545 -0.05586523 0.23875211 -0.13903439 0.26624733 0.23920688 0.14774856 -0.4848761 -0.19568036 0.28668553 0.016465897 -0.009560769 -0.08523409 0.036319878 -0.009626781 0.45470583 0.7137494 -0.04093095 -0.102886945 0.017507745 -0.29401007 -0.08642293 -0.114630915 -0.02120058 0.8422086 -0.073036544 0.08313811 -0.21360652 0.17185074 -0.32535046 -0.7581965 0.030487515 0.03725991 -0.75554115 0.2955641 -0.47663477 -0.35037246 0.24230383 -0.26193273 -0.32642296 0.74280643 0.2555988 -0.4778703 0.06282909 -0.07092864 -0.10689709 0.16339554 0.02418856 -0.3208486 -0.09094014 0.2910695 0.23965687 0.12845062 0.18485463 0.114121206 -0.16941549 0.48761636 0.64394057 -0.4287067 0.32210046 -0.06594462 0.37171727 -0.17278899 0.17514583 -0.059474662 -0.4397156 0.24425328 0.20591223 -0.33012766 0.09135797 0.13365093 0.28609237 0.29320395 0.11772822 -0.009771326 -0.19006617 0.08066627 -0.2752347 0.027177267 0.25131246 -0.3465876 -0.18362498 0.5680257 0.042912077 -0.028525446 -0.31043088 -0.045901064 0.31085688 -0.26270434 -0.11324699 0.24615797 -0.15624475 -0.15011008 -0.18636598 0.04968653 0.03034516 -0.015038263 0.04663068 -0.13165145 0.15338856 0.5958135 -0.05519293 -0.4542567 -0.5788174 0.188234 0.079793245 -0.05538527 -0.047301754 -0.5890183 -0.27981597 -0.18774146 -0.0031131273 -0.39151806 -0.30146736 0.081776604 0.25208336 -0.13165556 -0.6497422 0.28425443 -0.35931385 0.11031487 -0.037038714 -0.3202646
modulus1 -0.08847642 -0.23505333 0.42605212 -0.12002281 -0.206438 0.5992706 0.03517239 0.3378282 -0.072798684 -0.07760193 0.42531016 -0.15810902 -0.121355414 0.15150826 -0.0052853343 0.39404857 0.4525443 -0.2766289 -0.38859376 0.13235012 -0.09740682 0.37900802 0.14373802 0.08895748 0.08934729 -0.27757022 -0.13469104 -0.3099094 0.4951058 -0.16109517 0.37138632 -0.09869514 -0.13839889 0.05100417 -0.15854067 -0.35760373 0.08289828 -0.05360222 -0.25339 0.14235875 -0.0021508397 -0.2779638 0.057214048 -0.2952632 -0.73120624 -0.30246657 0.10557099 0.20229125 -0.7990481 -0.12837525 -0.054605864 0.40109676 -0.119257726 0.17128333 0.22505869 -0.2806838 0.28143877 -0.29245773 0.6787443 -0.26652813 -0.26868913 -0.039741453 -0.05746906 0.20642151 0.77531034 -0.09765129 0.36497074 0.4570748 -0.42125267 -0.27018294 0.22663885 0.6012135 -0.19249065 -0.19011487 0.025935842 0.039329752 0.038257197 0.08578159 -0.37522593 -0.50098556 0.25121102 0.3485089 0.20054175 0.19343556 0.5204834 0.28137004 0.5609041 -0.37046626 0.3562104 -0.35540867 -0.4086199 -0.6252654 0.31204605 0.10339434 -0.17256454 -0.15456687 -0.04381011 -0.25430486 0.35781974 0.12986149 0.26895198 0.10618168 0.3173774 0.045168146 -0.06961704 0.22843772 0.1073195 -0.13485523 -0.04076489 0.37242737 -0.006166777 0.06537367 0.511271 -0.56937 0.18541117 0.08167802 0.14153394 0.1133751 -0.1740176 -0.297034 -0.32279834 0.11653027 0.15803131 0.056443468 -0.023880571 -0.08699012 0.044714924 0.35371444 -0.20912662 -0.24946101 0.30092838 0.17693473 0.41765764
http://www.semanticweb.org/ElementKG#hasPeriod6 0.09963844 -0.5049149 0.2947237 -0.35219172 -0.55356634 0.18079749 0.045536708 0.27371123 0.29318684 0.09605535 0.20518902 -0.2772389 0.053848892 0.18296954 -0.1234126 0.33683836 -0.20384084 -0.24155025 -0.45680153 -0.21300311 0.18768832 0.1558098 -0.2313997 0.11433943 0.009286433 -0.06899212 0.5237585 -0.2004115 0.5025112 -0.6023302 -0.11467725 0.05692238 0.27854303 0.5915871 0.5813839 -0.10065664 -0.32369328 -0.08921564 0.004307755 -0.10925364 -0.2916608 -0.35624236 -0.2506782 0.19259886 -0.45153767 -0.27055222 -0.18047498 -0.10729726 -0.36512008 -0.40468004 0.20826437 0.032620404 -0.26665026 0.028904347 -0.1333379 -0.302359 -0.21889053 -0.08529796 -0.14293322 0.22389585 0.58549476 0.060774133 0.09672867 0.15078534 -0.092921145 -0.029296052 -0.16819759 0.50686693 -0.45385027 0.33659634 0.034241434 0.3408255 -0.14216127 -0.24537827 -0.18321875 -0.19704367 0.12353601 0.46757397 0.08344869 -0.41867086 0.7177237 -0.2442173 -0.31717324 0.16971433 -0.19067802 -0.025363084 0.0919496 -0.13929564 -0.68058825 0.27052352 -0.1988232 0.1490549 0.057757135 0.08098535 -0.13118902 0.35883665 -0.2945941 0.4007717 0.010114399 -0.33689678 0.019290501 -0.08446512 0.02244285 -0.026294371 0.24392898 -0.2458398 0.029952584 0.20683801 -0.3565966 -0.09276757 0.6602044 -0.22166859 0.37676913 -0.5168366 0.15282716 -0.3003557 0.54855686 -0.033644315 -0.17694014 -0.09676555 -0.06804148 -0.18334052 -0.060071394 0.10287256 -0.23498486 0.10705922 -0.3120225 -0.5218939 -0.2263145 0.65303004 0.038883414 0.2726115 0.07108833
in -0.03756622 0.15048315 -0.03537105 0.496697 0.21471478 0.35720742 -0.1666922 -0.46480703 0.38723397 -0.20773527 -0.30720323 -0.26190025 -0.15715656 0.23311958 -0.21660472 -0.13344656 -0.15854052 -0.29467544 -0.331912 0.1243075 0.33586964 -0.040176317 0.24820006 0.2774015 -0.11968219 0.11320654 0.17624046 -0.078911774 0.24295233 0.17436665 -0.015486786 0.008780049 0.19627222 -0.082883604 0.20308647 -0.4495599 -0.23151423 -0.20787197 -0.09929273 -0.10062621 -0.17244962 -0.010114857 0.2549711 -0.4135798 -0.23202915 0.029381754 -0.03367429 -0.106741704 -0.32411516 0.039651424 -0.55300397 0.07615464 0.17990763 0.052712105 0.097184986 -0.24497078 0.44887567 -0.24307907 0.6370489 -0.20893785 0.009406015 0.21513681 0.32110694 -0.044861976 0.09975652 0.11750882 0.3899708 0.056214202 -0.07236309 -0.29915947 -0.45666593 0.2524994 0.086933345 0.19742642 0.06252644 -0.10263419 0.37438762 -0.16014323 0.3911898 0.26235744 0.42328086 0.026053488 -0.06812416 0.28096375 -0.07165749 0.46809724 0.12927611 0.13924427 -0.08218132 0.08123975 0.0769818 0.3080208 0.19382294 -0.046264704 -0.16612732 -0.0550505 0.08738088 0.28437385 0.2581452 0.16507344 0.73188716 -0.37841323 -0.011652561 -0.0622891 0.31444222 -0.235001 0.0065205414 0.076235496 -0.016626803 0.29420874 -0.012505163 0.316105 0.18827718 -0.0641431 -0.02290712 0.016030764 -0.0100769205 0.08431147 -0.25885308 0.10175357 -0.29734397 0.037740044 -0.019872086 0.29268384 0.070939995 -0.120987564 -0.12363163 0.18454963 0.08384002 0.15199201 -0.18168788 -0.37166142 0.094365165
radius2 -0.15988442 -0.41173673 0.44440192 -0.069254875 -0.18403688 0.26472563 -0.55004835 -0.053692516 0.12601271 -0.06503986 -0.5879319 -0.1344568 0.024881538 0.5767443 -0.17174013 0.15911818 0.024290971 -0.34780508 -0.124384634 0.15752013 -0.1302377 -0.030942209 0.046540402 -0.045357134 -0.028254956 0.12790102 0.06769478 0.5574992 -0.13326138 -0.16164215 0.38742796 0.26820105 0.15367056 0.22614618 -0.7357984 0.027162867 0.1329703 -0.2334247 -0.1413202 0.20707631 -0.17589948 -0.11977005 -0.10879169 0.26852474 -0.73845744 0.095121644 0.6362131 0.1385258 -0.1375906 0.16308738 -0.067689575 -0.11160653 -0.0385213 -0.09740897 -0.17296465 -0.39546636 -0.027200874 -0.4433526 0.84011483 0.5161628 -0.3627159 0.27441245 0.16939557 -0.1599506 0.30932507 0.2295718 -0.048942976 -0.58022976 0.10380424 -0.071373954 -0.63044536 -0.09559823 0.07641759 0.033822045 0.014735632 0.29048523 -0.4534108 -0.19611004 0.5400146 0.2223258 0.31122833 0.057378538 0.26306212 0.5062226 -0.23947266 0.4682823 0.1463454 0.18848455 -0.2868612 0.13962744 -0.18877769 0.3891304 -0.053627074 -0.095148794 0.15825303 0.3923822 -0.14373095 -0.31201014 0.49246103 -0.2177939 -0.26354578 0.040841263 0.025967982 -0.03865792 0.39477155 0.21770278 0.3167711 -0.79186934 -0.091007315 -0.057280503 0.21998377 0.48622298 0.026014503 -0.12154783 0.4473238 0.26318803 0.03796219 0.2907642 -0.3015289 -0.18262991 0.21220206 0.5909087 -0.040532704 -0.17866121 -0.20598598 0.22632617 -0.06836682 0.34816885 -0.13575946 0.06887342 -0.087018035 0.26767212 0.13030721
http://www.semanticweb.org/ElementKG#hasWeight -0.08736871 0.13677652 -0.09305332 0.27774507 -0.21274668 -0.13378339 0.00064272276 -0.15451379 0.03774992 -0.041933138 0.056952804 0.18742932 -0.15925731 -0.12718627 -0.064133935 -0.15314953 -0.050534185 -0.094094016 -0.08645976 0.14824717 0.3232227 0.060673278 0.12802683 -0.35165912 -0.081028104 -0.17495714 0.03512946 0.056926712 -0.04698528 0.1268956 -0.048242703 -0.03490223 0.11462815 0.17306298 0.07156416 -0.052398432 -0.14931655 0.07254635 0.10442216 -0.18081954 -0.21692982 0.027016385 0.11973138 -0.17027815 -0.089645565 0.1011979 -0.146981 0.12022233 -0.31592458 0.023094533 -0.057873264 0.30659425 0.009998297 -0.024947092 -0.35599148 -0.17489356 -0.08141761 -0.15804933 -0.032116115 -0.057489518 -0.33067098 -0.055289846 -0.11956361 -0.1287342 -0.033048905 -0.011245264 0.03134986 0.19471833 -0.22711602 0.16655612 -0.07826541 -0.16027054 -0.0610407 -0.28789577 -0.06243815 0.13297893 0.19092342 -0.10279841 0.2105 0.030870777 0.1444056 -0.41762695 -0.18131481 0.10457507 0.08116819 -0.30076876 -0.31567603 -0.26532334 -0.13368313 0.041276287 -0.063525766 0.16312623 -0.020997113 0.23237962 0.014471061 -0.10557487 -0.028991038 0.1949444 0.13130648 -0.13666657 0.3888854 -0.14056183 0.22628346 0.20251773 -0.20526426 -0.423257 -0.21349433 -0.22298197 -0.19562954 0.1528057 0.28031686 0.075047374 -0.203649 -0.18893053 0.30997 -0.091783315 -0.09521064 0.15414554 -0.1435939 -0.1340878 -0.29517058 0.14080231 -0.1557409 0.36542815 -0.1810349 0.13805224 -0.008587367 0.0005074684 -0.15296452 -0.17044365 -0.4443212 0.044892546 -0.09967272
http://www.semanticweb.org/ElementKG#hasAbundance -0.069547266 0.09061456 -0.008279099 0.23379114 -0.19300789 -0.18910052 -0.05551972 -0.18079142 -0.0029745419 -0.07583935 0.09690742 0.2234919 -0.14994958 -0.10476788 -0.08248666 -0.12575893 0.029109828 -0.08115778 -0.003192264 0.11845279 0.25344226 0.042923752 0.16285169 -0.36302257 -0.042535868 -0.17439176 0.029602453 0.057648133 -0.049215425 0.112561546 -0.031389933 0.007241997 0.07435137 0.18322165 0.10503011 -0.06967986 -0.17554462 0.05875796 0.0867032 -0.17657718 -0.2557586 0.032941822 0.15603802 -0.14625147 -0.10904445 0.092202656 -0.1479752 0.1337367 -0.33259076 -0.060082264 -0.024691377 0.2891976 0.076258436 0.041615255 -0.3341881 -0.16887774 -0.08131396 -0.17202747 -0.049528845 -0.089552574 -0.33883557 -0.15433864 -0.11769447 -0.13961194 -0.046876285 0.017216016 0.079454936 0.2732892 -0.16030528 0.22281589 -0.087255426 -0.1543757 0.018644324 -0.23706423 -0.11923421 0.11252476 0.21941005 -0.10078489 0.23467557 0.050325215 0.10509547 -0.45728657 -0.12808503 0.12050522 0.042162523 -0.28046998 -0.29855525 -0.27310202 -0.14336023 -0.0011356446 -0.075148925 0.15041755 -0.007836596 0.21956478 0.040161572 -0.054847065 -0.09282083 0.20883708 0.17647527 -0.09998573 0.38850632 -0.10235868 0.2551967 0.19354983 -0.22492169 -0.44992065 -0.23548959 -0.27351797 -0.18455453 0.11972814 0.22853534 0.08947574 -0.2389812 -0.18488604 0.29058045 -0.06866084 -0.13286375 0.1933844 -0.12870371 -0.16161579 -0.35215107 0.12543328 -0.13593566 0.31154567 -0.15587239 0.2044468 -0.028708251 -0.0095313145 -0.15188132 -0.20139576 -0.44665205 0.017503828 -0.11831334
http://www.semanticweb.org/ElementKG#hasAtomic -0.08574148 0.13329846 -0.07905733 0.24602056 -0.20991148 -0.116694584 -0.018549796 -0.14950873 0.01763808 -0.040903743 0.08312876 0.20765136 -0.1318964 -0.12989637 -0.0609049 -0.17614348 -0.029462643 -0.12315548 -0.090498224 0.12801221 0.30101728 0.083871394 0.11924725 -0.34454927 -0.058237422 -0.15319972 0.0033924226 0.06396812 -0.03998289 0.08115693 -0.04802283 -0.016638694 0.12207935 0.17493081 0.053414725 -0.03920374 -0.14716426 0.12439582 0.09183155 -0.1772772 -0.25188917 0.028821144 0.11783568 -0.19398975 -0.06691777 0.13423744 -0.15466967 0.09071727 -0.31923202 0.004347218 -0.064976685 0.30863032 0.0142419925 -0.05109346 -0.3465039 -0.17657645 -0.0855126 -0.15740503 -0.025226252 -0.05816041 -0.3039726 -0.101333514 -0.09748723 -0.09227672 -0.012149895 -0.01027331 0.011985391 0.18307593 -0.21686515 0.20003803 -0.08619721 -0.15975821 -0.045366235 -0.3190546 -0.08418798 0.119068354 0.17929712 -0.06258184 0.2113802 0.04157022 0.12475413 -0.40855992 -0.16769543 0.078812435 0.07674972 -0.30220413 -0.30820853 -0.26254594 -0.1430485 0.02731653 -0.059954762 0.16833942 -0.04942856 0.18381807 0.029930366 -0.093115486 -0.022454515 0.1715808 0.14111604 -0.12944867 0.41275558 -0.12622418 0.23511034 0.17698993 -0.2611802 -0.4171609 -0.22606374 -0.21640496 -0.18855788 0.1608742 0.3016501 0.055745654 -0.20197636 -0.17117684 0.33797055 -0.07157168 -0.16581905 0.17476894 -0.14711854 -0.12598944 -0.30980036 0.12704451 -0.1389893 0.36152393 -0.16399372 0.1685753 -0.015974857 0.024032956 -0.15695985 -0.1536739 -0.44512355 0.03807948 -0.12257189
http://www.semanticweb.org/ElementKG#hasEnergyLevels -0.0801024 0.14484021 -0.096420445 0.24592438 -0.23060158 -0.12798516 0.032669082 -0.14648367 0.054587808 0.043585233 0.04377306 0.19603482 -0.12848948 -0.16364157 -0.09398191 -0.15571463 -0.050226994 -0.12910165 -0.12699936 0.11731996 0.3266118 0.054379556 0.13661988 -0.32195327 -0.04684056 -0.16640766 0.009513636 0.058282036 -0.038262166 0.11806979 -0.009035826 -0.06553941 0.12842517 0.19232783 0.03331184 -0.056261353 -0.13338138 0.03828326 0.074393846 -0.2408682 -0.2479228 0.021938577 0.08293714 -0.13445246 -0.08761802 0.1432713 -0.21079636 0.11200537 -0.32758257 0.03490488 -0.043987203 0.3221337 0.0071386676 -0.047150183 -0.37421238 -0.1697508 -0.05807377 -0.1163048 -0.07507733 -0.02927699 -0.37548992 -0.059141915 -0.11723542 -0.06576721 0.003808953 -0.003190557 0.026812492 0.20542325 -0.20070617 0.18712787 -0.06640953 -0.16298085 -0.06446693 -0.28086382 -0.07874291 0.14545996 0.13326997 -0.07619072 0.19087902 0.037409905 0.17977448 -0.43692338 -0.18161902 0.107801184 0.11221675 -0.32843903 -0.32378045 -0.23425327 -0.112742566 0.06993484 -0.06616666 0.21270224 -0.06407455 0.20166169 -0.0058104307 -0.123314746 -0.024888061 0.21413682 0.15976252 -0.14160383 0.39180547 -0.1288163 0.24877496 0.13703188 -0.26289958 -0.3849171 -0.21498437 -0.17147534 -0.17513363 0.15836917 0.24706608 0.12000583 -0.22863418 -0.17604485 0.29372498 -0.11966309 -0.13200843 0.23725057 -0.16286008 -0.12760267 -0.2993209 0.15215543 -0.14346142 0.3435869 -0.17233399 0.12577276 0.03241666 0.021285437 -0.12892136 -0.18106137 -0.4147501 0.030989818 -0.09109367
http://www.semanticweb.org/ElementKG#hasName -0.085296035 0.10995706 -0.08210229 0.24470069 -0.22435856 -0.16980363 0.011675331 -0.1445306 0.040017292 -0.000167511 0.090276554 0.21629159 -0.17730291 -0.14241931 -0.07067964 -0.17745577 -0.022377286 -0.13204484 -0.12838733 0.16480933 0.3116611 0.07467258 0.15472461 -0.35397163 -0.05719157 -0.19224294 0.049579974 0.06681605 -0.05097132 0.09727464 -0.055614848 0.014328558 0.11356082 0.17116544 0.09160557 -0.097784206 -0.12379089 0.07834366 0.08104047 -0.21609953 -0.21200848 0.041511722 0.1182361 -0.16847351 -0.076336905 0.08486695 -0.15273498 0.08099194 -0.3265177 0.039177503 -0.07581832 0.2844095 0.0008355955 -0.017189719 -0.34996226 -0.13671778 -0.112534866 -0.14775202 -0.024447154 -0.038018208 -0.31782705 -0.07360477 -0.13329458 -0.10306118 -0.024883337 0.046143796 0.033049785 0.1799274 -0.20397647 0.19307949 -0.084076054 -0.14188494 -0.07744207 -0.2577338 -0.06311449 0.15456177 0.19445811 -0.0889219 0.276041 0.061884686 0.12816793 -0.38588563 -0.18824488 0.09919263 0.08997426 -0.30920696 -0.30870298 -0.23721346 -0.16015983 0.03482614 -0.0839163 0.15543823 -0.04777157 0.19165075 0.017736685 -0.101718426 -0.03340386 0.20593487 0.15120865 -0.11331624 0.40135908 -0.09593679 0.2574 0.22088373 -0.25191668 -0.3984011 -0.24262516 -0.20324014 -0.16511762 0.14758219 0.25653476 0.07097069 -0.2173747 -0.14885868 0.34055796 -0.077359065 -0.10160286 0.17710687 -0.14775844 -0.13698018 -0.31393367 0.11943329 -0.16163394 0.34734383 -0.17619507 0.15502012 0.008127519 0.005216341 -0.113838635 -0.15436271 -0.42925325 0.018537525 -0.11956485
http://www.semanticweb.org/ElementKG#hasDiscoveredIn -0.12558384 0.16182059 -0.13202901 0.28824037 -0.18094727 -0.083182946 -0.010402203 -0.19539943 0.058651637 -0.013720588 0.029207112 0.22680874 -0.15522152 -0.099286884 -0.07465412 -0.15035665 -0.021351365 -0.13135053 -0.10065242 0.16254659 0.32146204 0.026117517 0.1389497 -0.2831442 -0.074236676 -0.15057337 0.054407068 0.06408513 0.015317906 0.07902712 -0.041525375 -0.018024608 0.08898992 0.16356082 0.08121621 -0.092347465 -0.11829211 0.02190871 0.11288115 -0.22205608 -0.18117937 0.0054569268 0.10559925 -0.17897357 -0.07775401 0.11940818 -0.16080709 0.118568085 -0.33959657 0.01028705 -0.10260108 0.3170816 0.013021745 -0.06351254 -0.3342067 -0.17599754 -0.07613922 -0.10453349 -0.016778147 -0.054836538 -0.29940158 -0.057150047 -0.08638588 -0.097396456 -0.037885807 0.009614659 0.04028802 0.22906698 -0.2282506 0.13963452 -0.12993433 -0.111009136 -0.079981275 -0.27138713 -0.054411735 0.15499705 0.18860194 -0.0650473 0.25628394 0.085013114 0.17810978 -0.4042302 -0.24504477 0.124321915 0.07503455 -0.26952198 -0.27930725 -0.25722012 -0.17478034 0.061166808 -0.066094846 0.1753748 -0.043442123 0.18934545 0.029033925 -0.14410765 -0.03988101 0.21290365 0.1422259 -0.100443356 0.45527294 -0.10308551 0.270252 0.18907918 -0.21763973 -0.40311906 -0.24763034 -0.19927958 -0.15890642 0.17026941 0.2706814 0.06950778 -0.22476979 -0.15480101 0.30493626 -0.08312617 -0.1137066 0.19035444 -0.17061475 -0.066175364 -0.3319701 0.1329088 -0.1561778 0.35162905 -0.15204965 0.12286903 -0.0031747837 0.01957625 -0.13598554 -0.12543821 -0.50826573 0.037573233 -0.13546948
http://www.semanticweb.org/ElementKG#hasIonization -0.08585773 0.094080225 -0.07217513 0.23981111 -0.20635104 -0.13409385 0.03457324 -0.08356015 0.045215435 -0.0059113787 0.07569355 0.22003901 -0.12009712 -0.1820252 -0.028398532 -0.21817969 0.01693013 -0.04335916 -0.11461463 0.16172446 0.3194815 0.114260696 0.060156986 -0.3995543 -0.08305239 -0.19729073 0.017510526 0.066089824 -0.08724535 0.098075755 -0.0049896357 -0.030219227 0.114383034 0.24689415 0.051652145 -0.021904076 -0.10030498 0.04641197 0.115843676 -0.15350659 -0.23058571 0.07017567 0.0862367 -0.17273793 -0.030678624 0.06869441 -0.1469544 0.12192824 -0.31421277 -0.023418749 -0.052184023 0.2560341 -0.0042844433 -0.026507992 -0.30186665 -0.13406703 -0.0892175 -0.1454839 -0.006303475 -0.04731148 -0.2721616 -0.090863265 -0.123851836 -0.10519029 -0.030602347 0.063853726 0.063718736 0.17569278 -0.23557721 0.21345542 -0.07199812 -0.20119807 -0.056668054 -0.3001875 -0.0898457 0.13777709 0.14759058 -0.09967146 0.24258998 0.030537466 0.14331649 -0.40140617 -0.17510997 0.03164124 0.09884582 -0.24697068 -0.286875 -0.23330808 -0.09267441 0.025783429 -0.07055636 0.08894824 -0.043832455 0.2871552 -0.013315225 -0.023416355 -0.034302156 0.18814662 0.1620922 -0.12508176 0.33627293 -0.14670269 0.24615508 0.21498775 -0.24971715 -0.4276531 -0.23647334 -0.28164092 -0.1499352 0.15919301 0.30524215 0.016118675 -0.20600724 -0.17972958 0.26905987 -0.033735707 -0.09905584 0.16649194 -0.15544349 -0.16356361 -0.29819524 0.09269039 -0.1788787 0.37950507 -0.18155675 0.20930794 0.01759875 0.058261693 -0.12408563 -0.16385192 -0.47555217 0.0446246 -0.18459651
http://www.semanticweb.org/ElementKG#hasState -0.10853597 0.0414816 0.03211954 0.2749855 -0.20957501 -0.12475703 0.000645999 -0.041731335 0.056698397 -0.07849895 0.03442579 0.28031313 -0.09569464 -0.21358316 -0.04996272 -0.09787264 0.022090742 -0.12807252 -0.07903558 0.1417223 0.36923587 0.13546166 0.034096427 -0.4102946 -0.015143637 -0.07113494 -0.023912631 0.103575364 -0.1487205 0.06020423 0.053963803 -0.054904908 0.06351598 0.22423717 0.03348111 0.017426757 -0.11524687 0.07359631 0.067631364 -0.27563933 -0.2702398 -0.01890929 0.09632051 -0.118877836 0.018327221 0.08471252 -0.08417392 0.1540002 -0.38818118 0.0033787224 -0.01615856 0.2554835 0.04783164 0.061694004 -0.30932093 -0.2744491 -0.11859442 -0.14084163 0.018056216 -0.12122551 -0.23325945 -0.07412859 -0.16796687 -0.12870668 -0.03253184 0.0065669324 0.107319 0.18514848 -0.17391853 0.22353092 -0.04976828 -0.18185963 -0.025042882 -0.18363912 -0.11918603 0.17626266 0.14284852 -0.097657874 0.2309773 -0.025912771 0.17029953 -0.43773875 -0.17749104 0.0069043613 0.02505945 -0.24909993 -0.23041756 -0.30727163 -0.12793306 0.062645614 -0.03862709 0.15160722 0.020873299 0.25293887 -0.089546904 -0.007601607 -0.016217371 0.2540829 0.19340071 -0.1372206 0.35614517 -0.16786851 0.22751811 0.13344485 -0.33575657 -0.44200107 -0.2221167 -0.311826 -0.17891492 0.10077096 0.27087095 0.022878423 -0.2896817 -0.08586716 0.25196898 -0.008705219 -0.08688293 0.07815357 -0.1489486 -0.12327631 -0.23148048 0.048657145 -0.17992613 0.32313475 -0.17270076 0.18044665 0.055953488 0.03475025 -0.14890276 -0.1765689 -0.4119944 0.03576532 -0.15616912
http://www.semanticweb.org/ElementKG#hasMeltingPoint -0.09156084 0.09547214 -0.041677337 0.28370553 -0.18069571 -0.15975983 0.022442846 -0.068511195 0.03002412 -0.033227764 0.07471519 0.24695723 -0.068301864 -0.18611032 -0.064768516 -0.20443462 -0.034196373 -0.080890104 -0.093245395 0.1775957 0.27107173 0.16564058 0.09848573 -0.40215328 -0.045808744 -0.15460986 -0.02019795 0.058032792 -0.08504569 0.118540235 0.050371476 -0.044343974 0.12099861 0.23384835 0.07999743 -0.022817269 -0.070730105 0.09533063 0.12659515 -0.19158587 -0.23598175 -0.014984258 0.12142088 -0.14656958 0.016960813 0.04765088 -0.12937817 0.12541312 -0.36042088 0.00021110485 -0.0830636 0.30418012 0.025965396 0.007217739 -0.33599874 -0.11195186 -0.12246898 -0.13524464 0.025052037 -0.017984219 -0.2320215 0.019514376 -0.102592 -0.083104014 -0.047810223 0.015864931 0.05716489 0.18568863 -0.23754264 0.19796267 -0.07954547 -0.20138721 -0.06064616 -0.2169494 -0.11186961 0.17301102 0.12604079 -0.08684594 0.23887621 0.033411242 0.18707542 -0.40853193 -0.18946669 -0.011322845 0.06727331 -0.23081145 -0.30165282 -0.26999024 -0.14582655 0.0723098 -0.092338175 0.13819586 -0.030908773 0.27249405 -0.047190383 -0.018939039 0.0376519 0.20664826 0.14972073 -0.11818719 0.3523264 -0.17410994 0.24054976 0.20915762 -0.2637638 -0.43245643 -0.23742986 -0.24361348 -0.20075798 0.16976015 0.27002165 0.020681767 -0.20321323 -0.14666972 0.32072675 -0.06983262 -0.092973724 0.17884633 -0.14307079 -0.11956646 -0.28152508 0.105583325 -0.18972945 0.36651897 -0.18852054 0.20784315 0.008479138 0.021699 -0.13982034 -0.13481018 -0.4448482 0.097713746 -0.16430858
http://www.semanticweb.org/ElementKG#hasDensity -0.044683382 -0.014797091 -0.051079504 0.32328343 -0.14634238 -0.013327646 0.03461642 -0.1508794 -0.06941154 -0.0035296096 0.17206152 0.17633207 0.026808662 -0.017154295 -0.06761435 -0.21765558 0.13166934 -0.099561065 -0.19155288 0.08773188 0.33505622 0.0048015513 0.06869342 -0.35265312 0.0029458026 -0.14521752 -0.055998977 0.050584078 -0.17163657 0.2122859 0.0029885748 -0.015471978 0.093276 0.2230024 0.05086255 -0.057918213 -0.027646752 0.002375994 0.15310754 -0.20172463 -0.28850076 -0.046298154 0.14310943 -0.17570248 -0.010459263 0.06621925 -0.236621 0.11840268 -0.2974114 0.047538154 -0.035091985 0.26273504 0.02063128 0.043488476 -0.4577676 -0.10357417 -0.14284834 -0.20663503 0.11950468 -0.11507606 -0.29470372 -0.09765997 -0.08418521 -0.13097589 -0.046148285 0.0560019 -0.029185113 0.25536576 -0.18584335 0.064800926 -0.1604505 -0.22010587 0.00011317556 -0.20695654 -0.051324368 0.16567059 0.00035098798 -0.15628527 0.16784005 -0.02920533 0.10234596 -0.40152314 -0.38751614 -0.048072934 0.14134611 -0.34382495 -0.26511443 -0.28735167 -0.1556619 0.08914292 -0.084253676 0.027091686 0.042095788 0.250742 -0.062092055 -0.025773767 -0.008673797 0.15720733 0.24852733 -0.20120981 0.37627614 -0.024955798 0.27515018 0.12007987 -0.2268034 -0.440058 -0.26679263 -0.20354867 -0.17827262 0.015481022 0.39154166 0.013383114 -0.186703 -0.11966946 0.2708613 0.022040602 -0.19279774 0.1041939 -0.09615075 -0.24372357 -0.23152566 0.045226216 -0.24991521 0.4208085 -0.17905602 0.11679109 -0.0055479663 -0.021546397 -0.055149283 -0.2102881 -0.47437707 0.12210008 -0.1136513
http://www.semanticweb.org/ElementKG#hasBoilingPoint -0.10068349 0.08909541 -0.051052332 0.32919282 -0.14599921 -0.05554245 0.020357413 -0.15159412 0.038209558 -0.08218112 0.04606918 0.2896969 0.06993593 -0.12864329 -0.15768968 -0.22875768 0.14036551 -0.054538548 -0.13860232 0.19097774 0.28001437 0.051681273 0.0463678 -0.40191725 -0.0365275 -0.0911265 -0.06837637 0.06473244 -0.14776133 0.026598675 -0.004507278 -0.04180652 0.088139676 0.26278695 0.09582288 0.0028342549 -0.08065459 -0.07306082 0.20038317 -0.20424677 -0.16891225 -0.0028374454 0.1143827 -0.20511743 0.026809216 0.06293603 -0.15863447 0.16562912 -0.31604624 -0.019247545 -0.0473943 0.259588 -0.04636402 0.09364852 -0.1613231 -0.15160553 -0.16676511 -0.28009206 0.10884578 -0.016652402 -0.23830585 -0.12491885 -0.055256527 -0.01873661 0.020889012 -0.06751904 0.00040940772 0.28853008 -0.23579931 0.16121325 -0.13568667 -0.2529554 -0.028162792 -0.3051987 -0.08916045 0.14738424 0.12769997 -0.12976897 0.15560018 0.038198348 0.14164084 -0.39843622 -0.3744998 -0.01619556 0.119732566 -0.2649683 -0.28004318 -0.20387425 -0.20930623 0.15357617 -0.11727179 -0.020596655 -0.08414893 0.31139332 -0.008146369 -0.05684775 0.03308282 0.124956764 0.2835547 -0.09969854 0.35021034 -0.040170174 0.28313297 0.2394657 -0.2676181 -0.36570784 -0.11803709 -0.13096492 -0.12414238 0.12132389 0.41362092 0.014241473 -0.24306655 -0.12776332 0.2898961 -0.0028524443 -0.07337294 0.23641774 -0.19755882 -0.26271734 -0.16610815 0.082105756 -0.18870836 0.33546293 -0.17986415 0.1624962 -0.005868458 -0.05430928 -0.05892381 -0.20845386 -0.4706684 0.1873333 -0.16592722
http://www.semanticweb.org/ElementKG#hasFamily3 -0.2541618 -0.08424991 -0.06890456 0.24132943 -0.18802732 0.0878567 -0.33526686 0.19394986 -0.28466138 0.07434031 0.100648 0.08751292 0.32195848 -0.4541775 0.27118108 0.19202103 -0.28895426 -0.27333084 -0.28149956 -0.4085308 -0.033633817 0.065946974 -0.23052803 -0.11246464 -0.018517656 -0.7734072 0.68640083 0.0012657829 -0.10610675 0.16317406 -0.03998125 -0.30314508 0.026082423 0.26175153 0.072907954 0.12702316 -0.5802815 0.26463878 -0.31067228 -0.15968293 -0.22290792 -0.4830185 -0.1829764 -0.62199277 0.082991734 -0.2956296 -0.45031506 0.08069538 -1.0243596 -0.3167158 -0.0409353 -0.38526407 0.029298732 -0.16139592 -0.1815649 -0.3545808 0.2722753 0.16114274 -0.11792335 -0.33892757 0.19547571 -0.029494418 -0.15040699 -0.3789782 -0.3941382 -0.2976098 0.06411647 0.10840237 -0.46858504 0.44110918 0.30500463 0.064809255 -0.59931237 -0.01431726 0.24036665 -0.036207575 0.2603271 -0.068008624 0.03980806 -0.3157697 0.06265801 -0.36972776 0.06260451 0.16375688 0.47334242 -0.14307246 0.20188348 -0.12539469 0.30009273 0.32697946 -0.4353815 -0.18829297 0.49961883 0.24372196 -0.017623339 -0.114944376 -0.1589738 0.15454035 -0.056033373 0.3697342 -0.14573818 -0.08910669 0.24672292 -0.016011655 0.14039764 0.07336334 -0.31576058 -0.36356512 -0.17359893 0.12553936 0.34718966 -0.018496778 0.50395906 -0.33749256 0.028534569 -0.12970199 0.24140269 -0.041690104 -0.11903288 -0.16046624 -0.13266915 -0.1374415 0.3134002 0.1540663 0.39773652 -0.3182319 -0.3519013 -0.18709274 0.23699588 0.19750607 -0.033999145 -0.049662445 -0.08723225
http://www.semanticweb.org/ElementKG#Dy -0.0238595 -0.07223721 -0.022566361 -0.16969763 -0.27950642 0.2111588 -0.38954568 0.1076004 0.0397658 -0.08763928 0.060397096 0.08022949 0.2506608 -0.3336659 -0.4292019 0.35347784 0.15974209 -0.23750943 -0.2523965 0.048066948 0.17017338 0.016079951 -0.12083577 -0.1297231 0.15386665 -0.08258004 0.01960085 0.06631345 -0.099457 -0.27924716 0.010316698 -0.23551704 0.2356587 0.2042725 0.08792136 -0.09889967 -0.11275938 -0.036442496 -0.01573455 -0.03322725 -0.29541373 -0.39776123 -0.15643139 -0.24523331 -0.20844528 -0.12866543 0.0031602017 -0.089795075 -0.39237744 -0.34917656 0.032369237 -0.17899165 -0.20787321 -0.29044014 -0.06566569 -0.09532518 0.01711174 -0.0040782187 -0.13546775 0.056394428 -0.1048842 0.11922649 0.09180636 -0.024328964 -0.20919044 0.054287367 0.03829475 0.39586416 -0.057433136 0.1693307 -0.11619514 -0.0076989196 -0.38162398 -0.024877734 -0.08462054 -0.049674314 0.12394603 -0.060429472 -0.027705822 0.11629608 0.061382726 -0.13525686 0.25181004 0.003771532 0.25056022 0.09716572 -0.0062878276 -0.018955527 -0.08690419 -0.047533896 -0.3031544 -0.029105917 0.33128613 -0.09200011 -0.030171603 0.15491763 -0.229034 0.12766655 0.049267855 -0.0576849 0.31660306 0.07079425 -0.09001986 -0.010838387 0.3319981 -0.16760829 0.0767657 -0.22943178 0.059072293 -0.13430084 0.3608268 0.1629517 -0.04420825 -0.0022990895 -0.016140176 -0.31546155 0.13958836 -0.18127543 -0.20728682 -0.42102116 0.02365535 -0.2643322 0.016578108 -0.08016358 0.019089904 -0.053803373 0.2731796 0.05894766 0.1876954 -0.09170136 -0.15325253 0.08437748 -0.20293874
http://www.semanticweb.org/ElementKG#hasConductivity -0.02216187 -0.041080054 -0.033969536 0.27973452 -0.13672926 -0.07498071 0.065734506 -0.19585986 0.047328297 -0.21321353 0.055796973 0.22169746 -0.054023206 -0.06959064 -0.103621654 -0.25265586 0.12777773 -0.034188047 -0.1225114 0.15924 0.30500618 0.25456896 -0.037590038 -0.4103806 -0.030825993 -0.08340815 0.028816966 0.054717805 -0.2951312 0.1085843 0.11941886 0.008338171 -0.10758079 0.22214453 0.10024383 -0.0012507958 -0.10332107 -0.0019088163 0.17485541 -0.165061 -0.30761805 -0.067864396 0.12687144 -0.20556217 -0.00059572555 0.058632366 0.009319902 0.10913909 -0.3221059 0.07309534 -0.08495869 0.25169486 -0.035743624 0.11938943 -0.2915398 0.00085823814 -0.17975834 -0.18580677 0.057403345 -0.109337546 -0.30958146 -0.13264516 -0.023392094 -0.055869278 -0.041128267 0.110693626 -0.06745919 0.3201797 -0.12095348 0.111440204 -0.11640994 -0.19013444 -0.03159798 -0.29935154 -0.049979966 0.026065845 0.11441088 -0.029802527 0.05173366 -0.022940299 0.2297312 -0.3643165 -0.20309442 0.07384064 0.10032645 -0.3198599 -0.35377127 -0.26681584 -0.15757239 0.021817774 -0.09034486 0.01151699 -0.080390535 0.38715562 -0.030113235 -0.036151823 0.026286576 0.116667986 0.21934128 -0.14073864 0.33593288 -0.078646794 0.2791153 0.24250774 -0.23551896 -0.35103548 -0.12278318 -0.23278189 -0.15521649 0.043216657 0.39752242 0.03776117 -0.17555079 -0.0660362 0.44028863 0.015371284 -0.22001112 0.13401914 -0.12553227 -0.29295415 -0.25707915 -0.017192552 -0.17283972 0.4295301 -0.048665676 0.13765073 0.10009071 -0.04385535 -0.17028196 -0.28091863 -0.46264076 0.16470535 -0.15500423
http://www.semanticweb.org/ElementKG#Ho 0.030951373 -0.09653567 -0.016231576 -0.16702093 -0.17513804 0.21237977 -0.35713577 0.15668899 0.029856928 0.030046256 0.06930952 0.052117668 0.16907185 -0.3407816 -0.41224334 0.33291128 0.04985521 -0.12971136 -0.27644637 0.12131009 0.18336163 0.031824537 -0.06544245 -0.089228585 0.10229518 -0.1116167 0.10977584 0.11852028 -0.08272171 -0.17820385 0.0778659 -0.19995928 0.16439767 0.18018813 0.010133398 -0.068110794 -0.07279951 -0.083332956 -0.06454809 0.01693236 -0.35365364 -0.36556533 -0.1711222 -0.29931727 -0.23639168 -0.1804804 -0.06576086 -0.019715281 -0.39416757 -0.2281752 -0.04073591 -0.23587409 -0.27942744 -0.22463575 -0.110325515 -0.15441076 -0.024274983 -0.026011867 -0.16967331 0.13010892 -0.0597945 0.14495674 0.04554349 -0.04574001 -0.12681523 0.17011261 -0.022847332 0.36873788 0.01081621 0.20612325 -0.071819305 -0.04359444 -0.43745378 -0.092043884 -0.056677856 -0.018687826 0.11690837 -0.09667544 0.020056706 0.19182973 0.07832679 -0.102256194 0.20596503 0.020399366 0.19699636 0.07547932 0.02468445 -0.043919038 -0.09009075 -0.10369071 -0.34243634 -0.030708136 0.47371128 -0.14348131 -0.06402924 0.04583295 -0.27355763 0.07976006 0.102493875 -0.10750976 0.2809185 0.021251846 -0.06271559 -0.12050738 0.36205426 -0.27139083 0.006626665 -0.16422398 0.03632189 -0.13517743 0.33869562 0.044886023 -0.1109349 0.016007798 -0.036157284 -0.38132578 0.12045381 -0.14878444 -0.1693763 -0.44874457 -0.009708789 -0.30777594 0.039998583 0.007710257 0.023262495 -0.052020036 0.3208149 0.08530463 0.1337393 -0.060140125 -0.058314897 0.09005623 -0.17471814
http://www.semanticweb.org/ElementKG#Er 0.06330258 -0.13372228 0.02682144 -0.13248591 -0.2725843 0.23522322 -0.42369145 0.031197367 0.06985002 0.005219093 0.10434242 0.11752487 0.27875996 -0.29601452 -0.32771865 0.33735067 0.14145046 -0.1891136 -0.343424 0.050820526 0.12610632 0.07300021 -0.088686995 -0.07647223 0.12522705 -0.12836939 0.030761259 0.061001353 -0.14638212 -0.16399348 0.017075026 -0.23364437 0.21819206 0.20868179 0.11365932 -0.1291268 -0.124561615 0.03466372 -0.062319666 -0.0055482145 -0.34719855 -0.40255272 -0.15881906 -0.14414832 -0.17635897 -0.13266577 -0.034406245 -0.036505368 -0.41730094 -0.25243744 -3.619789e-07 -0.2136243 -0.2668092 -0.17707822 -0.13186371 -0.1178721 0.0128246695 0.033341195 -0.1480876 0.15448019 -0.065815754 0.12629169 0.025323136 -0.06374118 -0.20727038 0.14159098 0.12827697 0.3870479 -0.05288384 0.13081878 -0.12697445 -0.0595248 -0.43053827 -0.083357215 -0.0971465 -0.004603956 0.026690528 -0.028351761 0.018594868 0.038286768 0.05326997 -0.15545973 0.3095526 -0.043476015 0.19128613 0.057708226 -0.057175305 -0.054772485 -0.054400023 -0.103426196 -0.25777873 -0.07041017 0.35925302 -0.16894345 -0.063167565 0.031569477 -0.19862685 0.13307054 0.09878832 -0.11569478 0.24445905 0.041575138 -0.0852633 -0.046661127 0.33010262 -0.20620467 0.11880168 -0.23270091 0.020121187 -0.16382827 0.36221474 0.08038009 -0.05002405 -0.027584365 0.031122046 -0.38349977 0.018492702 -0.173644 -0.19356053 -0.43926546 0.019205809 -0.27401492 0.084808156 -0.060954772 0.02350066 -0.07623014 0.23747073 0.16030893 0.13482846 -0.036063634 -0.118216164 0.05883796 -0.20266564
http://www.semanticweb.org/ElementKG#Pr -0.07790393 -0.05366954 -0.053038493 -0.13920307 -0.2374143 0.27380657 -0.30682638 -0.0051196534 0.27805847 0.23426257 0.093637094 0.06837987 0.056915224 -0.3055016 -0.25650635 0.27396294 0.30819753 -0.30448493 -0.262393 0.16718136 0.15026006 0.2427116 -0.08773649 0.11250975 0.1946121 -0.123569 -0.018086992 0.07743219 -0.12124991 -0.09138033 -0.031037629 -0.16778149 0.082493834 0.14303866 0.13364826 0.109069616 -0.19689132 0.18440305 0.008468503 0.14267124 -0.36248747 -0.3791807 -0.17713264 -0.17020327 -0.17928132 0.030223327 -0.08150724 0.10000323 -0.45763412 -0.30165353 0.11842529 -0.3133909 -0.2706073 -0.19711187 -0.22017324 -0.10735239 0.0028778645 0.08472979 -0.052897 -0.04658202 0.01523249 0.13521704 0.13522248 -0.054976646 0.0014460757 0.20207618 0.055870503 0.38931662 -0.06644287 0.21035062 -0.08264706 -0.1226818 -0.39680576 -0.07258164 -0.029627543 -0.022405079 -0.075383104 -0.06705305 0.22800232 0.26196882 0.13170876 -0.040634546 0.10335509 -0.0035029552 0.31504974 -0.015538824 -0.21474817 0.019205617 -0.07454457 -0.07575908 -0.30344057 -0.059282154 0.32825822 -0.2468175 -0.057888716 -0.15171123 -0.053804446 0.2635276 0.08061131 0.09108997 -0.08087418 0.02826532 0.018327333 -0.047279425 0.07338253 -0.15751928 0.22333299 -0.23498313 -0.217857 0.02030383 0.43062222 0.114605375 0.20964044 -0.10011181 -0.02928853 -0.16981916 0.0016469646 -0.2313714 -0.099851474 -0.40361676 -0.06859937 -0.4394693 0.14684525 -0.10008786 -0.15402539 0.17907548 0.074926764 0.06373753 0.27545372 0.10176674 -0.1564171 -0.08357621 -0.10966716
http://www.semanticweb.org/ElementKG#Nd 0.011409845 -0.058323245 -0.046930138 -0.13407378 -0.05804663 0.27419966 -0.24280056 0.03747049 0.2385197 0.06365719 0.12833579 0.107885666 0.104442455 -0.28460908 -0.3201862 0.23799804 0.23330377 -0.2696935 -0.1985294 0.16093026 0.17003925 0.28593752 -0.136228 0.10000987 0.2197458 -0.12465265 -0.07273289 0.053647153 -0.12558353 -0.073509306 0.061811868 -0.12884897 0.23259038 0.086509176 0.1695459 0.11192181 -0.11685067 0.20401676 -0.07782232 0.0648226 -0.31586248 -0.3728304 -0.20104365 -0.22959608 -0.22818889 -0.1080769 -0.0025523866 0.059154704 -0.4175408 -0.35698545 0.19048388 -0.3248253 -0.3366663 -0.24405831 -0.25642344 -0.12687272 0.04413227 0.001583128 -0.092246465 0.040331412 -0.026813462 0.07258423 0.06886902 -0.022037787 -0.032870814 0.09436271 0.116871335 0.40867105 -0.059983596 0.22491457 -0.05625724 -0.16027908 -0.3954472 -0.030933658 -0.050660044 -0.007895182 -0.071486324 -0.16713084 0.21226749 0.26356363 0.22116944 -0.08625748 0.06293342 0.032427363 0.2568508 -0.09815515 -0.22832729 -0.037109457 -0.066327244 -0.13549979 -0.31282204 0.030626157 0.3987042 -0.15164107 -0.20940368 -0.12031497 0.09315504 0.15994981 0.12578467 0.004870295 -0.06930581 0.052931227 -0.07230675 0.0317486 0.20891841 -0.18531762 0.13397886 -0.1884954 -0.3337817 0.041718077 0.48712847 0.13396893 0.2522498 -0.021430919 -0.054190222 -0.2791763 0.05061341 -0.23500852 -0.061391663 -0.28892985 -0.1484867 -0.39771655 0.10586162 -0.10996285 -0.11592896 0.095467165 -0.0031371594 -0.030956553 0.28811246 0.009004615 -0.13376504 -0.007583005 -0.09986445
http://www.semanticweb.org/ElementKG#hasElectronegativity 0.030874567 0.111938916 -0.019101486 0.09023905 -0.071471885 -0.058139276 0.1885222 -0.02039123 0.21755637 -0.009868304 0.034632012 0.19363578 -0.115761146 -0.35153055 -0.2520522 -0.19857907 -0.06472905 -0.19926621 -0.17277597 0.017890513 0.1857818 0.01676559 0.0657162 -0.524244 0.001321345 0.038740873 -0.060151674 0.2195216 -0.10439417 -0.12586226 0.04105445 -0.024413954 0.1251232 0.1282492 0.10802559 -0.0024396882 0.03643643 -0.047070924 0.20038906 -0.10496914 -0.09299451 0.00397887 0.18694808 -0.082719386 -0.01537475 0.0944396 -0.083678775 0.12693755 -0.44770852 -0.019054016 -0.2262094 0.38861936 -0.092563845 0.04650234 -0.13373275 -0.02959248 -0.39758128 -0.02175563 0.18261048 -0.0125683695 -0.30761784 0.00030055875 -0.22699401 -0.24080963 -0.0076571396 0.19807214 0.06263662 -0.00347663 -0.077909596 0.059490997 -0.06486589 -0.25511205 -0.074540086 -0.33566552 -0.13798326 0.13478452 0.20857762 -0.04624084 0.23973545 0.034883168 0.18081196 -0.23816347 -0.17004985 -0.13326895 -0.00862458 -0.15916148 -0.3996121 -0.5627683 -0.09068456 0.08517357 -0.1507622 0.16483834 0.051021 0.23105182 -0.15533902 -0.20929223 0.16220188 0.14669827 0.1868082 -0.05296685 0.504079 -0.29998067 0.21553878 0.15575357 -0.31882977 -0.5021289 -0.35621652 -0.32752508 -0.19248475 0.16859686 0.2581015 -0.057155102 -0.16788878 -0.17047921 0.33819056 0.05176299 -0.22193573 0.09459177 0.02476003 -0.21257684 -0.35676512 0.11784453 -0.15453047 0.3368595 -0.22551884 0.23210157 -0.002675258 -0.06596381 0.01879583 -0.19340506 -0.51383954 0.08691625 -0.15376972
http://www.semanticweb.org/ElementKG#hasDensity3 0.29167116 -0.36298293 0.11909424 0.26100338 -0.22888346 0.27371934 -0.26943755 -0.07201201 -0.34618655 -0.19576223 0.14267886 -0.1984563 -0.12376461 -0.27100208 0.15818763 -0.31464452 0.32989937 0.05404311 -0.2587995 -0.26494685 -0.12026455 -0.11821255 -0.36865175 0.13188374 0.5369976 0.37619725 -0.033435516 -0.04181714 -0.056534532 0.12866771 -0.61675555 -0.4965804 0.60037345 0.25100178 -0.027663445 0.022896644 -0.23278816 -0.24970774 -0.47594327 -0.16908744 -0.40257916 -0.11386714 -0.14729413 -0.5442357 -0.4861895 -0.42418313 -0.14578749 -0.058575932 -0.5290251 -0.25721505 0.10388499 0.05780766 -0.50067955 -0.23513158 -0.39884454 -0.44360635 -0.66825384 -0.09398163 -0.19008596 -0.096785516 0.11079086 0.41950455 -0.018529085 0.0887158 -0.43288925 -0.0027938338 -0.14652556 0.040691033 0.12961634 -0.50671756 -0.16933508 -0.56120324 0.27170688 0.0055029583 0.13482092 -0.15206733 -0.01575964 -0.16427693 0.21088186 -0.14827408 0.38135397 -0.20010124 -0.4170856 -0.021953197 -0.45558488 -0.1974957 -0.24694955 -0.27669543 -0.4391919 -0.067455806 -0.30584767 0.040757023 0.056923814 0.063334756 0.35550416 0.16324146 -0.31654283 -0.21678478 -0.19650601 -0.32391325 0.28665715 -0.22113006 -0.11595604 -0.4396779 0.31957135 -0.23722811 0.072603285 -0.32134166 -0.2203434 0.15780893 0.06692442 -0.11212891 0.4105577 -0.7432884 -0.023893248 0.4920065 0.27482983 -0.61050427 0.018189888 -0.5915585 0.26667532 -0.3335901 -0.1509628 0.09353389 0.10423395 0.105585806 -0.16911153 -0.022099294 0.51283354 0.624559 -0.4707799 -0.15092131 0.09488805
http://www.semanticweb.org/ElementKG#hasElectronegativity2 0.10920163 0.16353676 0.19445314 0.08595944 0.11272592 0.3400604 -0.5122195 0.40695494 0.38759682 -0.0057443855 0.115686156 0.084354065 0.22039337 -0.57272726 0.04100581 0.1553975 -0.31026277 -0.30001915 -0.23962888 0.08659634 -0.073807254 -0.00474788 -0.54230195 0.18336377 0.17517097 -0.40959808 0.30271596 0.08537924 0.07945784 -0.3983671 -0.24661769 -0.32201123 0.1770316 -0.007313944 0.38798407 -0.16932552 -0.38929787 -0.23166308 0.20693126 -0.074545436 -0.060439084 -0.31854022 0.17975216 -0.7107623 0.2838182 -0.02822622 -0.49305794 -0.08986383 -1.0529735 -0.6591029 -0.50481707 -0.36999097 0.22644565 0.034335814 -0.19272314 0.1383891 -0.26102397 0.06676161 -0.5257452 -0.26277676 -0.048007466 -0.13374981 -0.10202704 -0.5523747 -0.28535497 -0.039021954 -0.3185625 -0.07655527 -0.19478263 0.086112164 0.31439483 -0.13868119 -0.2557393 0.1662034 0.0987494 0.26650658 0.007836461 0.17738245 0.009235137 -0.32582095 0.054867346 0.124830775 0.0018351711 0.15871038 -0.08682955 -0.086793475 0.06914422 -0.7388629 0.34357452 0.28708285 -0.44862825 0.12404141 0.8117936 -0.26022777 0.12482093 -0.33276367 0.2653489 0.37672582 0.27197102 -0.096308395 -0.09355063 -0.22301799 0.16605851 -0.027012508 0.042653747 0.2398642 -0.19466728 -0.6079525 -0.2177071 -0.040527754 0.15948178 -0.1462848 0.29685917 -0.3902817 0.11135857 0.08076132 0.22774681 -0.16738933 0.008064909 -0.44771203 -0.3721301 0.4206632 0.3316109 -0.02944427 0.46941376 0.074385524 0.035621006 -0.26648992 0.49207917 -0.13036633 -0.10279706 0.17760804 -0.35207987
http://www.semanticweb.org/ElementKG#Sc -0.08184228 0.5599112 0.18426025 -0.015282724 -0.28366983 0.24845733 -0.63481057 -0.1686525 0.026322937 0.040802706 0.014854505 0.031787064 0.28801316 -0.37224582 -0.07831736 0.31509924 0.10795233 0.16180272 -0.22410643 0.30514532 0.20597808 -0.13451001 -0.28192943 0.12576555 0.11202519 -0.0070976936 0.34654608 0.237163 -0.108290955 -0.2732389 0.2665163 -0.5229859 0.17742273 0.13515608 -0.09915299 -0.06157588 0.23849925 -0.029353464 0.12181352 0.14317991 -0.36183038 -0.2266263 0.047476973 -0.03932444 -0.07680185 -0.032267563 -0.16710255 0.16482958 -0.6086922 -0.17097004 0.3024905 -0.16182806 -0.03701453 -0.019720646 -0.026194252 -0.0906561 -0.16774125 0.32016385 0.005606012 -0.20191553 0.08458672 0.11531274 0.19494565 -0.011460244 -0.23059914 -0.0295736 -0.09694893 0.14337422 0.061143626 -0.002633181 -0.28744608 -0.026457792 -0.16372818 -0.21481112 -0.1550559 0.08078592 -0.14832126 -0.09904459 0.1966926 -0.22065608 -0.017762063 -0.06837571 0.5430149 0.017967822 0.3291843 -0.07895704 -0.2793282 -0.11473772 -0.17589273 -0.313321 -0.46939245 -0.24011919 0.24791399 -0.031356096 -0.29381806 0.096443936 -0.069348834 0.18878649 0.16071719 0.08763252 0.078657515 0.046453856 -0.32539466 -0.14586714 0.23322783 -0.3911906 0.09996714 -0.040764283 -0.29385996 -0.24024293 0.3039229 0.3652708 -0.14836952 -0.15033466 -0.025041716 -0.042221323 0.11691047 0.14006726 -0.5042247 -0.3821749 -0.1769193 -0.090007365 -0.07666549 -0.15787543 0.13642351 0.09322814 0.34860668 -0.0706482 -0.24798068 0.09955266 0.018762916 -0.06654068 -0.2251898
http://www.semanticweb.org/ElementKG#Tm -0.1455202 -0.24176162 0.17263575 -0.0033602295 -0.10735735 0.2315553 -0.4409523 0.2547625 -0.047487326 -0.1476687 0.29590112 0.34450027 0.5299069 -0.190018 -0.38291728 0.34908015 0.035532214 -0.06289929 -0.33962992 0.17091125 0.17274551 -0.1267886 -0.047440715 0.014321568 0.15768124 -0.08527279 0.14278847 0.20037004 -0.039570134 -0.17709698 0.1630617 -0.5109347 0.061379917 0.2779226 0.29004335 -0.025865698 0.00086652907 0.07718363 -0.16296993 -0.11480456 -0.25597572 -0.089460544 -0.17288116 -0.24587764 -0.03519918 -0.076730534 -0.013995534 0.23589939 -0.38737357 0.12689087 -0.0023189157 -0.21509548 -0.21438251 -0.2608571 -0.06794891 -0.16039506 -0.06887884 -0.13373356 -0.13033198 0.10183343 0.16679007 0.087792575 -0.05239708 -0.09263603 0.02543419 0.09626804 -0.0186751 0.28871864 -0.17505541 0.00019291801 0.2251947 0.040354624 -0.54450554 0.053827394 -0.27574924 -0.014374388 -0.1190611 0.058777835 0.06786777 0.1339992 -0.042411547 0.03807716 -0.004392073 -0.06692558 0.26535806 0.045973916 -0.06865072 -0.095527336 -0.17278337 0.04429085 -0.2355469 0.009767167 0.43654883 0.09724018 -0.009723208 0.3288572 -0.16451445 0.13794464 -0.16264561 -0.22827215 0.26932755 0.11146046 -0.08220692 -0.12467622 0.30450478 -0.34626827 0.44726902 -0.27982557 -0.08132642 -0.18461396 0.30473378 -0.04165905 0.26339394 -0.06325893 0.17692028 -0.31152198 -0.05810145 -0.17788236 -0.2653888 -0.36016098 -0.11306315 -0.10961019 -0.12468075 -0.1473831 0.048185345 0.05014853 0.15739773 0.21407813 0.2118585 0.1271805 -0.18540686 -0.10639854 -0.4494422
http://www.semanticweb.org/ElementKG#Lu -0.23761967 -0.17609537 0.11723562 -0.078167625 -0.14475346 0.24358687 -0.48030072 0.15489303 0.057101693 -0.018510198 0.39152586 0.13178886 0.49949598 -0.23323709 -0.29206032 0.29079503 -0.054410264 -0.030608445 -0.4425643 0.068023115 0.080906354 -0.034079462 -0.042653974 -0.009397336 0.20371018 -0.11637976 0.18503414 0.10681428 -0.16481282 -0.31780955 0.061978675 -0.29850596 -0.014364435 0.2048929 0.2204744 -0.07343637 -0.14681333 0.13354895 -0.15986939 -0.044074748 -0.3095553 -0.16035269 -0.26249033 -0.3155462 -0.09268494 -0.08743233 -0.10204784 0.15267661 -0.31722647 0.06256449 -0.11428416 -0.18198918 -0.30382013 -0.30391425 -0.2272841 -0.036881626 -0.041415464 0.0048667905 -0.0641412 0.131844 0.08094024 0.055523947 0.10449277 -0.07020857 0.23426701 -0.0077300062 0.09491688 0.30872273 0.044284068 0.16432124 0.079184934 -0.17563295 -0.40156838 -0.07286154 -0.14847669 0.01108242 0.0029788981 0.005715589 0.0034811422 0.09807947 0.008004464 -0.04871714 0.1750361 -0.00805386 0.09358667 0.062294573 0.14085461 -0.082660854 -0.20494892 0.15040222 -0.2923769 -0.09379387 0.31695583 -0.06549993 0.053773053 0.22335225 -0.20219512 0.010045948 -0.17285505 -0.15279189 0.34299943 0.15414333 -0.039506536 -0.25149632 0.2640357 -0.3764622 0.23728296 -0.22056404 -0.05882492 -0.37042412 0.26994312 -0.15498723 0.1395019 -0.14118375 0.23303245 -0.33386362 -0.14859217 -0.12596282 -0.27281612 -0.4576125 -0.16163053 -0.0996933 -0.023101801 -0.12384777 0.13596427 0.07012721 0.13844235 0.3038788 0.20801562 0.109733 -0.20291263 -0.020815691 -0.5253135
type -0.3062345 -0.13637255 -0.16398989 0.29229647 -0.08152536 0.22712895 0.47633016 0.23514621 0.038387287 0.097240776 0.13574186 0.27034548 -0.3668519 -0.17556144 0.088523924 -0.05796236 0.042923 -0.2707411 -0.114683464 0.4260303 -0.14755788 -0.1696074 0.06678153 -0.39960614 0.20209286 -0.32658923 0.39320654 -0.038409125 0.28680673 0.04830548 0.072814055 0.11315035 0.32952723 -0.069586 0.07833657 -0.28817847 0.020568268 0.22089843 0.018816123 -0.2898439 0.21139753 0.073323846 0.08756472 -0.023155712 -0.19725823 0.46639785 0.070114665 0.1407435 -0.14971383 0.23285031 -0.1404923 -0.27764207 0.17969112 0.061797485 -0.48275042 -0.2974574 0.005880658 -0.08977739 0.18297312 -0.059505578 -0.18670732 0.13521992 -0.63132864 0.20788704 -0.10158428 0.01578827 0.032856785 -0.2018261 -0.2741225 -0.14043838 0.12623104 -0.16860607 -0.25248936 0.2777498 0.089416124 -0.04876305 0.018465392 0.06976752 -0.021228468 -0.16935354 0.023220807 -0.09560483 -0.022056775 -0.060558755 -0.16282672 -0.037324186 -0.12836817 -0.026946077 0.14916298 0.30049178 -0.06281949 0.11523704 0.042734668 0.40798575 0.27778605 0.18563788 -0.1697851 -0.047194265 0.2359953 -0.46215633 -0.003531663 -0.20441245 -0.067450345 0.3169377 -0.15003927 -0.2222504 0.017746428 0.13023463 -0.2904455 0.086760536 0.45318365 0.4573254 -0.47991008 -0.47998568 -0.05606844 0.5609116 -0.1175869 0.24395959 -0.09708506 -0.3659786 -0.43143606 0.24538201 -0.06816372 0.28714183 0.013936496 0.10248763 -0.18295875 0.18834847 -0.19339111 -0.010949742 -0.054866843 -0.006830541 0.36761007
hardness3 -0.53611857 -0.16713049 0.35568514 -0.34800714 -0.36564597 0.4068359 -0.42220083 0.08806426 0.5163628 -0.11591817 -0.007265341 0.09276795 -0.2148756 0.12173364 -0.4222317 -0.321921 -0.26472342 -0.51217145 -0.2875712 -0.07716451 -0.21689427 -0.22719061 -0.055703532 0.4391938 0.04181309 -0.18504788 -0.25561428 -0.026106654 -0.02693297 -0.061366472 0.47857362 0.08943098 0.21729906 -0.06266998 0.19556351 0.062677704 -0.40276092 -0.50938416 -0.2761545 0.26246002 -0.093175575 -0.16808602 0.4011398 -0.23656802 -0.04325751 -0.2761878 0.12463904 0.07920356 -0.8725419 -0.11873127 0.26998377 0.022999728 0.23790294 0.4873582 0.09329345 -0.15367973 0.17398629 0.19910422 0.05432549 -0.09392563 -0.07335364 0.2826014 -0.046776395 0.4815955 0.12967552 0.14840852 -0.211182 -0.10225339 -0.09346847 0.10686107 -0.2825491 -0.23340796 -0.27605933 0.7724444 -0.35201252 -0.47359487 -0.5266252 0.102805324 0.3552208 -0.45931503 -0.2865647 0.08179056 0.27653116 0.19576527 0.40816677 -0.08231043 0.742612 0.0019833369 -0.14228724 -0.095433794 -0.23808116 0.023340166 0.3064914 0.46781915 0.4134821 -0.13412707 0.21737866 -0.2088935 0.37096274 0.26891807 0.392194 -0.048030235 -0.013638841 0.02181755 0.14170194 0.52037734 0.24239568 -0.07186941 -0.24043536 -0.0038359403 0.2799872 -0.20964168 -0.23020996 0.16804339 0.26920253 0.006484028 -0.034400236 0.21909049 -0.5969015 -0.380938 -0.5083637 0.02692565 0.44053125 0.6504941 0.0043016793 0.08549433 0.049638927 0.051166244 0.4107393 -0.42202315 0.56287533 -0.051578987 0.19703965
http://www.semanticweb.org/ElementKG#Sm 0.053304818 -0.037142344 -0.14525802 -0.088048026 -0.1342614 0.25925282 -0.14592542 -0.00481662 0.028200772 0.13638166 -0.0058061285 0.21534981 -0.05430043 -0.09873154 -0.31345627 0.1898806 0.3408933 -0.51241255 -0.15646335 0.22006126 0.14255577 0.17886584 -0.24873996 -0.023137223 0.14121227 -0.1278938 0.12733535 -0.09800817 -0.37378645 -0.3229311 0.07056649 -0.15011658 0.0505128 -0.04412854 0.12900285 0.030049188 -0.2263873 0.07684432 -0.050114896 0.27025893 -0.4555252 -0.07934542 -0.3728683 -0.4157221 -0.33657923 -0.14326118 0.07820215 -0.018851116 -0.35241675 -0.28251874 0.17568976 -0.27948457 -0.10598029 -0.1496653 -0.11074729 -0.021488953 0.015851695 0.06836966 -0.18316911 0.1699339 0.07874924 0.23614837 0.27938548 -0.1956292 0.015607599 0.09373898 0.19738989 0.3582061 0.071166664 0.26586875 0.08676047 0.016358644 -0.3599098 0.1395157 -0.23365217 0.051010255 0.1433386 0.06867498 0.25190046 0.16580804 0.39829248 -0.23907483 0.02574822 -0.12781347 0.37713104 -0.18415894 -0.07623888 -0.046220437 0.0044784965 -0.08087282 -0.16309221 -0.0987415 0.38789985 -0.14416441 -0.14237955 -0.1060488 -0.09206024 0.29023847 0.0002611968 0.039608307 0.08838211 0.25981995 0.05696948 -0.008689491 -0.016076693 -0.17871211 -0.018582057 -0.35099906 -0.11097527 -0.26900297 0.41701183 0.32914263 0.35406113 -0.13387294 -0.17526877 -0.04873182 0.17202605 -0.23273163 -0.17652181 -0.3390829 -0.24701676 -0.1643549 0.17049094 0.043156207 -0.38722292 0.10033052 0.18947242 0.08538367 0.3596681 0.19237508 -0.06349436 0.021237474 -0.10414345
http://www.semanticweb.org/ElementKG#hasHeat -0.12782268 0.032991655 -0.03611938 0.24885722 -0.06264141 0.06383294 -0.006101486 -0.24202943 0.06696926 0.0019906338 0.2609729 0.35894546 -0.050995354 -0.21083112 -0.07326464 -0.38105145 0.22396414 -0.24128506 -0.074424505 0.07042864 0.3077367 0.16982786 0.060307328 -0.5109156 -0.016056128 -0.054987647 0.038258225 0.11354859 -0.11471249 0.01542059 0.07709301 -0.054519806 0.07849264 0.21662855 0.010285667 0.04544312 -0.10077969 -0.081357665 0.13958319 -0.24470052 -0.28179225 0.071183845 -0.011416032 -0.152782 0.03695093 0.15932171 -0.04922612 0.07755665 -0.2281333 0.09535449 -0.06320983 0.27078176 0.000271459 -0.06668077 -0.23980406 -0.05511502 -0.21625257 -0.12977836 0.14123258 -0.0689655 -0.3619644 0.09216308 -0.0806324 -0.099815205 0.03445356 0.29636312 -0.115355164 0.33565375 -0.062360696 0.12900043 -0.09979851 -0.06871459 -0.01967927 -0.22815964 -0.031435058 0.15628769 0.18255694 -0.18045373 0.028287021 -0.122847155 0.16662796 -0.33529723 -0.28614655 0.1509078 0.026664859 -0.3245686 -0.18637888 -0.25749418 -0.14627677 0.017416328 -0.13464239 0.14906245 0.07880474 0.24578187 -0.13630813 -0.14437182 -0.03031144 0.0681848 0.29121128 -0.22496665 0.5108721 0.053281307 0.25473848 0.12157576 -0.3075627 -0.17542517 -0.26052535 0.0060391324 -0.19784708 -0.042066563 0.32895863 -0.040562075 -0.14077747 -0.08678685 0.325186 -0.083195746 -0.23033343 0.17572802 -0.27086222 -0.32230762 -0.12790194 0.062761016 -0.287741 0.42200926 -0.20437478 0.102087356 0.21053061 -0.16301213 -0.21238509 -0.37740052 -0.42973375 0.11579667 -0.16557458
http://www.semanticweb.org/ElementKG#Bi -0.2317245 -0.11512683 -0.07814507 -0.4002405 -0.050842807 0.014452742 0.050479885 0.05233141 0.0696824 -0.014576956 0.37433016 -0.16442537 0.3570578 -0.2633698 -0.15175635 0.07392404 -0.1492466 0.013497679 -0.25536987 0.15202715 -0.11992078 0.20509495 -0.2630206 -0.039972384 0.19937296 -0.19110641 0.22374476 0.46227846 0.021853402 -0.16524936 -0.12829608 -0.23830682 0.04386588 0.09555864 0.23414199 0.23807113 -0.018146997 -0.10064497 -0.16801517 -0.1028588 -0.5311015 -0.02221593 -0.20105939 -0.12136356 -0.15073174 -0.46257064 0.17543721 0.057363924 -0.43855637 0.03410761 -0.2048531 -0.14267434 -0.51231486 -0.13532872 0.02262036 -0.1287518 0.27686086 -0.388515 0.012310412 -0.06583238 0.08727332 -0.105271265 0.2641194 0.25280204 0.21701337 -0.118021674 0.10626722 0.34465504 -0.044150677 -0.121007256 -0.029259598 -0.20366934 -0.04761102 -0.11085096 -0.341689 0.17098908 0.089705646 0.06305314 0.64689374 -0.079239 -0.1561478 -0.28818217 -0.62930775 0.29043138 -0.27654552 0.28457877 0.07941297 -0.087334305 -0.032440264 0.013748743 -0.6142807 0.3983477 0.33902588 -0.12231954 0.0072092856 0.09183618 -0.041297488 -0.217178 -0.26802143 0.100191586 0.16416103 -0.29702732 0.06394026 -0.31153157 -0.04276502 -0.08143998 0.6101524 -0.107357815 0.09187193 0.096896484 0.51639515 0.01818593 0.11197847 0.15705787 0.3186661 -0.12065088 0.13641857 0.13016793 0.03512182 -0.28964618 -0.059567437 0.026457192 0.08848029 -0.33818007 -0.017096628 -0.047172938 0.07077379 0.1163534 -0.08735587 -0.032534536 -0.3813655 0.008744344 -0.22977771
http://www.semanticweb.org/ElementKG#Y 0.10812261 0.06454767 0.28781247 0.01533984 -0.11325271 0.25378323 -0.42042074 0.2786702 -0.09259942 0.16353753 -0.1896259 0.10587112 0.37092617 -0.45093238 -0.16656299 0.39677003 0.4232371 0.255896 -0.071365185 0.0790768 0.17568472 0.12530836 -0.15418252 0.0017359947 0.044913553 0.17429273 0.036186047 -0.25756726 -0.24924198 -0.48908284 0.25344163 -0.4531633 0.27689168 -0.040483303 -0.017002452 -0.08240433 -0.041785885 -0.07491651 -0.12905866 -0.169813 -0.5049169 -0.15546356 0.040574215 -0.12624468 -0.36613694 -0.0644216 -0.09529745 -0.17308527 -0.60498923 0.02407718 0.5246022 -0.44097576 0.14075153 0.1417264 -0.06491408 -0.10857607 0.11284932 0.07807815 -0.20463058 -0.024465635 -0.11993796 -0.007180436 0.24137954 0.033518907 -0.19384433 0.1539429 -0.01207086 0.2205637 -0.18446974 0.108043104 -0.4138751 -0.2474484 -0.31342167 -0.35267472 -0.067120925 0.13870843 0.17351224 0.16074722 0.13385265 0.2036298 0.25370032 0.06236936 0.07931611 0.33958417 0.041880015 0.42124817 -0.19122553 -0.35829484 -0.02177359 -0.0051306156 -0.28417993 -0.19651772 0.3415179 0.06106187 -0.31839502 0.010420054 0.10037403 0.010951035 0.16098133 -0.09558878 0.29647005 -0.028592275 -0.23507714 -0.011618411 0.57114416 -0.056335315 -0.060108084 -0.10296463 -0.18773697 -0.0779752 0.16843492 -0.13563985 -0.18464306 -0.04858815 0.08109321 -0.15940237 -0.17682081 0.017371215 -0.14416812 -0.16283178 -0.18390678 -0.38269567 0.19075976 0.09101504 -0.10358465 0.0010367361 0.09163923 0.071799055 0.044833656 0.057459097 -0.090161294 -0.19938739 -0.49331832
http://www.semanticweb.org/ElementKG#Tb -0.07517398 -0.05148998 -0.06478921 -0.18779674 -0.2616689 -0.005182339 -0.45457 0.120397344 -0.06343616 -0.07329414 0.02589181 0.055523857 0.3204278 -0.2663978 -0.42934394 0.38398796 0.18038978 -0.18516968 -0.4562861 -0.12547399 0.25419366 -0.048615538 -0.013214216 0.09361502 0.45099896 -0.23796694 0.0075237476 0.013201962 0.017707312 -0.2894605 0.06448417 -0.16825992 -0.07837511 0.2157634 0.07248314 -0.32422596 -0.09796428 0.03995284 0.13002643 0.060543444 -0.3812599 -0.2771218 -0.25669485 -0.25608122 -0.06596945 -0.10932411 -0.038761817 -0.05879938 -0.43312538 -0.24138765 0.008425767 -0.16599846 -0.25540024 -0.19895384 -0.059248213 -0.20995153 0.0026371356 0.056817174 -0.08237672 -0.025232619 -0.24755596 -0.06136298 0.3343387 -0.30636317 -0.23180248 0.182123 -0.01760335 0.36985287 -0.10016848 0.042814057 -0.24231121 -0.0266762 -0.4708376 -0.054863192 -0.0008983907 -0.1851867 0.23522857 -0.00726199 0.018959329 0.081365615 0.05355326 -0.056888588 0.32121983 -0.050025165 0.05351987 0.1709151 0.06919542 -0.05654925 -0.3465387 -0.06529844 -0.4202839 0.04966684 0.3165367 -0.11059211 -0.009531177 -0.025765272 -0.111836806 -0.07522122 0.19198206 -0.2979982 0.18390512 0.03654202 -0.29342413 -0.19760415 0.08497959 -0.14371313 -0.01290809 -0.116659366 0.020847933 -0.040595178 0.41141453 -0.043909937 0.12997903 -0.03664269 0.13109405 -0.19491528 -0.11619095 -0.042866115 0.07514949 -0.4285258 0.15666282 -0.14202262 0.1299477 -0.10424794 -0.0354883 -0.04736005 0.09729885 0.009141769 0.22368334 -0.2903125 -0.25901404 0.09425785 -0.13302785
http://www.semanticweb.org/ElementKG#hasElectronAffinity -0.21880393 -0.076027505 0.017227214 0.15212883 -0.32099253 -0.072930016 -0.0043899585 -0.03026163 0.11287408 -0.05857584 0.031845722 0.17287378 -0.052867133 -0.113340266 -0.23066668 -0.14876947 0.25364015 -0.036337644 -0.14718169 0.18869264 0.24968332 0.1498647 0.10543629 -0.38571036 -0.013217158 -0.10419267 -0.06707349 0.020966543 -0.021211846 -0.06875275 0.046877533 0.083842665 -0.121927254 0.17479894 0.1986901 0.025525242 -0.06562605 0.11878332 0.2070381 -0.18891785 -0.4274773 0.0062969243 0.030438406 -0.1244824 -0.033270653 0.08606099 -0.14502172 0.31189156 -0.21501738 -0.12760864 0.11331824 0.2753296 0.025954885 0.0924739 -0.22603156 -0.067034975 -0.123730004 -0.23295225 0.15106906 0.123851486 -0.25123015 -0.20784211 -0.13493976 -0.111051254 -0.06246414 0.094706886 0.02785236 0.34382975 -0.26525548 0.13222249 -0.10149563 -0.13966186 -0.06953254 -0.29908833 -0.2173227 0.14736854 0.024546584 -0.15379508 0.15753888 -0.10313345 0.047711264 -0.37695137 -0.21624368 0.16970444 -0.033941403 -0.13165322 -0.19111784 -0.11438701 -0.2960235 0.057782322 -0.097532466 0.0882283 -0.013900712 0.23268312 -0.027087841 0.1497915 0.043507647 0.25177965 0.23344392 -0.26287255 0.36883634 -0.02914827 0.31451386 0.1263632 -0.31863767 -0.3621956 -0.2405595 -0.27913988 -0.05217359 -0.04596328 0.24915431 0.037797414 -0.27241892 -0.2315909 0.32803822 -0.0017738454 -0.085856944 0.28923687 -0.21450275 -0.25829366 -0.29216552 0.016433699 -0.27378398 0.27970457 -0.28624037 0.2776389 0.10517857 -0.20917973 -0.29796258 -0.29740444 -0.48197874 0.08184036 -0.18316051
http://www.semanticweb.org/ElementKG#Yb -0.12018661 -0.16466697 -0.1916056 -0.14696586 0.04539238 0.29329568 -0.3499333 0.012642431 -0.16125499 -0.070122935 -0.2313495 0.5418016 -0.19117762 -0.2293034 -0.24678364 0.29158545 0.31608924 -0.2699209 -0.2729451 0.13450281 0.38366643 0.0137433605 -0.017634183 -0.09364586 0.44654223 -0.042285018 0.054655265 -0.11271252 -0.27106392 -0.2595352 -0.048002183 -0.0443735 -0.18657032 0.08853094 0.32240924 -0.2612634 -0.040351514 0.012574293 0.17061122 0.24801612 -0.22630505 -0.13350706 -0.45992643 -0.44904986 -0.04141586 -0.12413165 -0.023869969 -0.010865172 -0.37570804 -0.3628957 0.29281348 -0.109255284 -0.18422545 -0.2588618 -0.12897743 -0.04689125 -0.13744488 0.09147727 0.22295703 -0.087899625 0.016703352 -0.064934194 0.37786347 -0.4015266 0.09861795 0.014286084 0.04769919 0.11880949 0.07849533 0.38224876 0.03429791 -0.089323714 -0.4286648 0.1163336 -0.13081607 0.07041143 -0.029625483 0.14537044 0.3249898 0.066582285 0.4536398 -0.29611376 -0.0710486 -0.28560588 -0.18751425 -0.08042887 -0.02943852 0.13463299 -0.023074595 -0.4000017 -0.55185574 0.17858906 0.4058196 -0.078994416 -0.0077563454 -0.05303845 0.028833332 0.24980608 -0.016695734 -0.020166682 0.011215286 0.08159341 0.04293276 -0.21629082 0.2448587 -0.27305993 0.13579254 -0.32736856 0.29869226 -0.020304212 0.38844717 0.25885153 0.46497986 -0.21511826 -0.034837205 -0.12782177 -0.17509048 -0.103171386 -0.13741317 -0.5196875 -0.36060047 -0.03355118 0.018679634 0.08371582 -0.23259623 -0.159233 -0.05625328 -0.16560437 0.26402032 -0.13268764 0.28963184 0.0802923 0.10395931
http://www.semanticweb.org/ElementKG#Gd 0.23834586 -0.22977974 0.041220278 -0.10041053 -0.17455347 0.003585948 -0.29240772 0.10870154 0.15514114 -0.15443102 -0.08363908 0.214065 0.32878247 -0.2818892 -0.2720694 0.5309774 0.21185957 -0.23135144 -0.29571167 0.079782024 0.11461353 -0.05347462 0.002109051 -0.08162293 0.12266266 -0.21469864 -0.05271158 0.15155122 -0.075446874 -0.20658152 0.1705104 -0.26483953 0.31605613 0.20774521 0.20270334 -0.08090884 0.015499777 -0.07993585 -0.14509578 -0.18278483 -0.3414801 -0.41819987 0.06091309 -0.08586736 -0.24659489 -0.019770784 -0.0986184 -0.28414685 -0.5571562 -0.35956335 0.04533278 -0.28733104 -0.44400948 -0.14290154 -0.21218155 -0.0709492 -0.09213083 0.26578906 -0.037032414 0.15210131 -0.13369872 0.21098515 -0.07639291 -0.17055316 -0.27669176 -0.0073390906 0.1524925 0.45813677 0.15526009 0.18438606 -0.121007346 0.040011756 -0.32004234 -0.1733046 -0.0605971 -0.07416526 -0.0569079 -0.23219569 0.057207216 0.07508438 -0.019571679 -0.27883634 0.23758012 0.17115292 0.2893759 0.13489738 -0.010662735 -0.07012072 -0.070911594 -0.021989558 -0.26041156 -0.12215404 0.36575907 0.029826235 0.13049951 0.1375188 -0.23782308 0.08524417 0.21866027 -0.049332235 0.25742394 0.05578887 -0.059410974 -0.22190674 0.118577935 -0.16007537 0.050819818 -0.1098937 0.13913283 -0.28404483 0.2608606 0.22489154 -0.08118547 -0.13604422 -0.12368102 -0.38267642 0.087941125 -0.4756329 -0.30350217 -0.1996391 0.010797047 -0.24443972 -0.024250615 0.08046272 0.037636336 -0.040838957 0.07562911 -0.00415842 0.20606019 -0.024356345 -0.027431302 0.06539704 -0.16588701
http://www.semanticweb.org/ElementKG#Ce 0.061306253 -0.16768113 0.0037747896 -0.11150033 -0.07054253 0.27176327 -0.42879215 0.058300395 0.1538172 -0.05344119 -0.02792856 0.21975806 -0.16710882 -0.24052258 -0.36225867 0.2181478 0.32496306 -0.3738846 -0.3203692 0.1956596 -0.11145682 0.24491398 -0.06546021 0.033827547 0.073323265 -0.00784592 0.14004476 0.12662227 -0.30240148 -0.25486368 -0.06035615 -0.07008649 0.18203859 0.19883014 -0.016765751 0.16014238 -0.23923357 0.03670804 0.039301787 0.07408817 -0.41991618 -0.23082887 -0.06204706 -0.16200118 -0.03329891 -0.16799599 -0.02484285 0.09352998 -0.27528396 -0.23489328 0.1253794 -0.36499885 -0.43650866 -0.16769718 -0.25399056 -0.044384412 0.015251199 -0.071575955 0.043606654 0.024646202 0.0838534 0.12980011 0.19843225 -0.08622203 -0.13446403 -0.011405292 -0.039537385 0.4729857 -0.20537764 0.13358548 0.10528775 0.09835626 -0.33445385 -0.18571275 -0.217891 -0.0038653943 -0.19853663 -0.05248343 0.044427656 0.20147109 0.10571655 -0.21970822 0.053421617 -0.030471656 0.25423217 -0.034077577 0.03739694 -0.14867838 0.20220426 -0.09141723 -0.2704999 0.18042389 0.28161037 -0.41317722 -0.15960203 0.058481023 -0.1761069 0.09733593 0.20922424 0.11225222 0.17754987 -0.1634917 -0.089694776 0.014110746 0.22662202 -0.14448045 0.27926597 -0.2764236 -0.28456613 0.077922665 0.6536609 0.1838527 0.124793015 -0.086680606 -0.26843828 -0.28990033 -0.18381508 -0.15289703 -0.022851737 -0.34398293 0.06703051 -0.14579132 0.2766126 -0.083861426 -0.039052706 0.11567282 -0.09292776 0.00017627969 0.350679 -0.08348329 -0.1682798 0.007866484 -0.06179403
http://www.semanticweb.org/ElementKG#La 0.047437526 -0.13261521 -0.10629808 -0.12082757 -0.07165425 0.26721948 -0.35256502 0.08392964 0.15715295 -0.018200243 -0.023878265 0.14457645 -0.21977508 -0.23987184 -0.37399516 0.27609485 0.2993145 -0.37531605 -0.2922489 0.22584872 -0.16008748 0.23189281 -0.16046551 -0.08504736 0.053533554 0.06535106 0.12250931 0.16782084 -0.20420848 -0.3644193 0.006889162 0.029797224 0.11165268 0.13707912 -0.026923401 0.18131971 -0.24504963 0.041341767 0.11945203 -0.05924936 -0.4451361 -0.2114636 -0.08555792 -0.20792027 -0.068500996 -0.11665152 0.080807336 0.082603276 -0.27713996 -0.32393855 0.09685003 -0.29230982 -0.3605518 -0.09218719 -0.25547493 -0.021295577 -8.7868975e-05 -0.04760894 0.09208922 -0.043713305 0.08136056 0.15983877 0.19759363 -0.013727481 -0.05264747 -0.017180225 -0.113268904 0.49012566 -0.17527314 0.14127265 0.0797923 -0.055403117 -0.41057384 -0.16828108 -0.15453549 -0.10190673 -0.11035287 -0.15370178 0.047048826 0.23564602 0.082349986 -0.23648128 -0.061921384 0.092359126 0.30038866 -0.024218295 0.04650238 -0.085723914 0.032399647 -0.16118474 -0.30940872 0.09329834 0.3138648 -0.45590195 -0.18023576 0.09515257 -0.30197302 0.1034532 0.23309556 0.19549766 0.1548904 -0.1799404 -0.02858409 0.019848004 0.2659952 -0.12216985 0.17788635 -0.16951905 -0.20083795 0.09211257 0.60711294 0.20266129 0.116073675 -0.12551767 -0.31602433 -0.31770173 -0.16153511 -0.13034685 0.013864295 -0.401081 -0.083151326 -0.1296005 0.24061653 -0.12057905 0.06084412 0.113269106 -0.054958772 -0.016972477 0.43365875 0.043942276 -0.14415461 -0.025718989 -0.1074198
